{"learner":{"attributes":{"scikit_learn":"{\"_estimator_type\": \"regressor\"}"},"feature_names":[],"feature_types":[],"gradient_booster":{"model":{"cats":{"enc":[],"feature_segments":[],"sorted_idx":[]},"gbtree_model_param":{"num_parallel_tree":"1","num_trees":"400"},"iteration_indptr":[0,1,2,3,4,5,6,7,8,9,10,11,12,13,14,15,16,17,18,19,20,21,22,23,24,25,26,27,28,29,30,31,32,33,34,35,36,37,38,39,40,41,42,43,44,45,46,47,48,49,50,51,52,53,54,55,56,57,58,59,60,61,62,63,64,65,66,67,68,69,70,71,72,73,74,75,76,77,78,79,80,81,82,83,84,85,86,87,88,89,90,91,92,93,94,95,96,97,98,99,100,101,102,103,104,105,106,107,108,109,110,111,112,113,114,115,116,117,118,119,120,121,122,123,124,125,126,127,128,129,130,131,132,133,134,135,136,137,138,139,140,141,142,143,144,145,146,147,148,149,150,151,152,153,154,155,156,157,158,159,160,161,162,163,164,165,166,167,168,169,170,171,172,173,174,175,176,177,178,179,180,181,182,183,184,185,186,187,188,189,190,191,192,193,194,195,196,197,198,199,200,201,202,203,204,205,206,207,208,209,210,211,212,213,214,215,216,217,218,219,220,221,222,223,224,225,226,227,228,229,230,231,232,233,234,235,236,237,238,239,240,241,242,243,244,245,246,247,248,249,250,251,252,253,254,255,256,257,258,259,260,261,262,263,264,265,266,267,268,269,270,271,272,273,274,275,276,277,278,279,280,281,282,283,284,285,286,287,288,289,290,291,292,293,294,295,296,297,298,299,300,301,302,303,304,305,306,307,308,309,310,311,312,313,314,315,316,317,318,319,320,321,322,323,324,325,326,327,328,329,330,331,332,333,334,335,336,337,338,339,340,341,342,343,344,345,346,347,348,349,350,351,352,353,354,355,356,357,358,359,360,361,362,363,364,365,366,367,368,369,370,371,372,373,374,375,376,377,378,379,380,381,382,383,384,385,386,387,388,389,390,391,392,393,394,395,396,397,398,399,400],"tree_info":[0,0,0,0,0,0,0,0,0,0,0,0,0,0,0,0,0,0,0,0,0,0,0,0,0,0,0,0,0,0,0,0,0,0,0,0,0,0,0,0,0,0,0,0,0,0,0,0,0,0,0,0,0,0,0,0,0,0,0,0,0,0,0,0,0,0,0,0,0,0,0,0,0,0,0,0,0,0,0,0,0,0,0,0,0,0,0,0,0,0,0,0,0,0,0,0,0,0,0,0,0,0,0,0,0,0,0,0,0,0,0,0,0,0,0,0,0,0,0,0,0,0,0,0,0,0,0,0,0,0,0,0,0,0,0,0,0,0,0,0,0,0,0,0,0,0,0,0,0,0,0,0,0,0,0,0,0,0,0,0,0,0,0,0,0,0,0,0,0,0,0,0,0,0,0,0,0,0,0,0,0,0,0,0,0,0,0,0,0,0,0,0,0,0,0,0,0,0,0,0,0,0,0,0,0,0,0,0,0,0,0,0,0,0,0,0,0,0,0,0,0,0,0,0,0,0,0,0,0,0,0,0,0,0,0,0,0,0,0,0,0,0,0,0,0,0,0,0,0,0,0,0,0,0,0,0,0,0,0,0,0,0,0,0,0,0,0,0,0,0,0,0,0,0,0,0,0,0,0,0,0,0,0,0,0,0,0,0,0,0,0,0,0,0,0,0,0,0,0,0,0,0,0,0,0,0,0,0,0,0,0,0,0,0,0,0,0,0,0,0,0,0,0,0,0,0,0,0,0,0,0,0,0,0,0,0,0,0,0,0,0,0,0,0,0,0,0,0,0,0,0,0,0,0,0,0,0,0,0,0,0,0,0,0,0,0,0,0,0,0,0,0,0,0,0,0,0,0,0,0,0,0,0,0,0,0,0,0,0,0,0,0,0,0,0,0,0,0,0,0],"trees":[{"base_weights":[3.1268322E-3,-6.7108804E-1,6.9998014E-1,-7.962169E-1,-2.6979E-1,2.7160493E-1,8.3608276E-1,-4.454157E-2,-3.1034483E-2,-2.0427164E-2,5.9815953E-3,-3.0162414E-3,2.267516E-2,3.3916667E-2,4.5400765E-2],"categories":[],"categories_nodes":[],"categories_segments":[],"categories_sizes":[],"default_left":[0,0,0,0,0,0,0,0,0,0,0,0,0,0,0],"id":0,"left_children":[1,3,5,7,9,11,13,-1,-1,-1,-1,-1,-1,-1,-1],"loss_changes":[4.808698E3,2.609983E2,2.932119E2,6.529541E1,6.694244E1,7.338595E1,4.271924E1,0E0,0E0,0E0,0E0,0E0,0E0,0E0,0E0],"parents":[2147483647,0,0,1,1,2,2,3,3,4,4,5,5,6,6],"right_children":[2,4,6,8,10,12,14,-1,-1,-1,-1,-1,-1,-1,-1],"split_conditions":[2.02E0,1.45E0,2.6333334E0,9E-1,8.660254E-1,1.6166667E0,-2.5881904E-1,-6.666667E-2,-4.0333338E-2,-2.3333335E-2,7.499993E-3,-3.3333362E-3,2.4416668E-2,7.083334E-2,8.6666666E-2],"split_indices":[0,0,0,0,7,3,7,0,0,0,0,0,0,0,0],"split_type":[0,0,0,0,0,0,0,0,0,0,0,0,0,0,0],"sum_hessian":[1.0233E4,5.201E3,5.032E3,3.964E3,1.237E3,1.214E3,3.818E3,2.573E3,1.391E3,9.12E2,3.25E2,4.3E2,7.84E2,1.199E3,2.619E3],"tree_param":{"num_deleted":"0","num_feature":"9","num_nodes":"15","size_leaf_vector":"1"}},{"base_weights":[6.2536644E-3,-6.370454E-1,7.0638645E-1,-7.7553594E-1,-2.3576643E-1,3.9095908E-1,8.6431855E-1,-4.3628596E-2,-2.9777298E-2,-2.0120615E-2,4.7930283E-3,7.9113925E-3,3.0365566E-2,3.397436E-2,4.572933E-2],"categories":[],"categories_nodes":[],"categories_segments":[],"categories_sizes":[],"default_left":[0,0,0,0,0,0,0,0,0,0,0,0,0,0,0],"id":1,"left_children":[1,3,5,7,9,11,13,-1,-1,-1,-1,-1,-1,-1,-1],"loss_changes":[4.60979E3,2.9624536E2,2.4381079E2,6.873096E1,7.575061E1,8.232999E1,2.9714111E1,0E0,0E0,0E0,0E0,0E0,0E0,0E0,0E0],"parents":[2147483647,0,0,1,1,2,2,3,3,4,4,5,5,6,6],"right_children":[2,4,6,8,10,12,14,-1,-1,-1,-1,-1,-1,-1,-1],"split_conditions":[2.1E0,1.45E0,2.9166667E0,9E-1,2.6166666E0,1.2246469E-16,-5E-1,-6.333333E-2,-3.8316667E-2,-2.3000002E-2,5.458331E-3,8.779168E-3,3.4612503E-2,9.395833E-2,8.9E-2],"split_indices":[0,0,0,0,3,7,7,0,0,0,0,0,0,0,0],"split_type":[0,0,0,0,0,0,0,0,0,0,0,0,0,0,0],"sum_hessian":[1.0233E4,5.333E3,4.9E3,3.964E3,1.369E3,1.636E3,3.264E3,2.573E3,1.391E3,9.11E2,4.58E2,7.89E2,8.47E2,7.01E2,2.563E3],"tree_param":{"num_deleted":"0","num_feature":"9","num_nodes":"15","size_leaf_vector":"1"}},{"base_weights":[5.9605236E-3,-6.407151E-1,6.743493E-1,-8.136549E-1,-3.6567163E-1,3.0157644E-1,8.262937E-1,-4.547725E-2,-3.444684E-2,-2.5016502E-2,2.3185485E-3,-6.012024E-4,2.3204995E-2,3.316876E-2,4.4983756E-2],"categories":[],"categories_nodes":[],"categories_segments":[],"categories_sizes":[],"default_left":[0,0,0,0,0,0,0,0,0,0,0,0,0,0,0],"id":2,"left_children":[1,3,5,7,9,11,13,-1,-1,-1,-1,-1,-1,-1,-1],"loss_changes":[4.4238813E3,2.4714038E2,2.8482373E2,3.7559326E1,1.11548035E2,7.436708E1,4.2143066E1,0E0,0E0,0E0,0E0,0E0,0E0,0E0,0E0],"parents":[2147483647,0,0,1,1,2,2,3,3,4,4,5,5,6,6],"right_children":[2,4,6,8,10,12,14,-1,-1,-1,-1,-1,-1,-1,-1],"split_conditions":[2.02E0,1.1166667E0,2.75E0,6.333333E-1,8.660254E-1,1.6166667E0,-2.5881904E-1,-6.4333335E-2,-4.5999996E-2,-2.8567499E-2,2.6854158E-3,-2.7229192E-4,2.5304794E-2,7.034166E-2,8.121667E-2],"split_indices":[0,0,0,0,7,3,7,0,0,0,0,0,0,0,0],"split_type":[0,0,0,0,0,0,0,0,0,0,0,0,0,0,0],"sum_hessian":[1.0233E4,5.201E3,5.032E3,3.192E3,2.009E3,1.458E3,3.574E3,1.801E3,1.391E3,1.514E3,4.95E2,4.98E2,9.6E2,1.113E3,2.461E3],"tree_param":{"num_deleted":"0","num_feature":"9","num_nodes":"15","size_leaf_vector":"1"}},{"base_weights":[6.155951E-3,-5.899543E-1,6.9180673E-1,-7.1682847E-1,-1.12173915E-1,4.108299E-1,8.474853E-1,-4.4506367E-2,-2.9144496E-2,-1.3945173E-2,1.6826924E-2,9.517923E-3,3.0527497E-2,3.2330826E-2,4.5141783E-2],"categories":[],"categories_nodes":[],"categories_segments":[],"categories_sizes":[],"default_left":[0,0,0,0,0,0,0,0,0,0,0,0,0,0,0],"id":3,"left_children":[1,3,5,7,9,11,13,-1,-1,-1,-1,-1,-1,-1,-1],"loss_changes":[4.183284E3,3.3180298E2,2.0786401E2,9.98938E1,8.612952E1,7.46951E1,3.345996E1,0E0,0E0,0E0,0E0,0E0,0E0,0E0,0E0],"parents":[2147483647,0,0,1,1,2,2,3,3,4,4,5,5,6,6],"right_children":[2,4,6,8,10,12,14,-1,-1,-1,-1,-1,-1,-1,-1],"split_conditions":[2.1666667E0,1.6166667E0,3.0333333E0,6.666667E-1,8.660254E-1,2.3166666E0,-5E-1,-6.028333E-2,-3.703333E-2,-1.5421623E-2,1.48073975E-2,9.2829885E-3,3.2476127E-2,9.157666E-2,8.349124E-2],"split_indices":[0,0,0,0,7,3,7,0,0,0,0,0,0,0,0],"split_type":[0,0,0,0,0,0,0,0,0,0,0,0,0,0,0],"sum_hessian":[1.0233E4,5.474E3,4.759E3,4.325E3,1.149E3,1.698E3,3.061E3,1.883E3,2.442E3,8.38E2,3.11E2,8.08E2,8.9E2,6.64E2,2.397E3],"tree_param":{"num_deleted":"0","num_feature":"9","num_nodes":"15","size_leaf_vector":"1"}},{"base_weights":[7.3285126E-3,-6.280959E-1,6.254819E-1,-8.2245535E-1,-4.2562652E-1,3.045478E-1,8.196163E-1,-4.300311E-2,-2.7932098E-2,-2.5929501E-2,2.59901E-3,-4.3923865E-4,2.3607843E-2,3.237952E-2,4.4792134E-2],"categories":[],"categories_nodes":[],"categories_segments":[],"categories_sizes":[],"default_left":[0,0,0,0,0,0,0,0,0,0,0,0,0,0,0],"id":4,"left_children":[1,3,5,7,9,11,13,-1,-1,-1,-1,-1,-1,-1,-1],"loss_changes":[4.0202031E3,1.9825879E2,3.2298535E2,2.505664E1,1.0987259E2,1.02780655E2,4.180078E1,0E0,0E0,0E0,0E0,0E0,0E0,0E0,0E0],"parents":[2147483647,0,0,1,1,2,2,3,3,4,4,5,5,6,6],"right_children":[2,4,6,8,10,12,14,-1,-1,-1,-1,-1,-1,-1,-1],"split_conditions":[1.95E0,9E-1,2.9333334E0,9.659258E-1,9.659258E-1,1.65E0,-2.5881904E-1,-5.6435835E-2,-3.143583E-2,-3.1071711E-2,2.3165585E-3,-4.0485265E-4,2.5068467E-2,7.4497834E-2,7.798127E-2],"split_indices":[0,0,0,7,7,3,7,0,0,0,0,0,0,0,0],"split_type":[0,0,0,0,0,0,0,0,0,0,0,0,0,0,0],"sum_hessian":[1.0233E4,5.046E3,5.187E3,2.573E3,2.473E3,1.956E3,3.231E3,2.25E3,3.23E2,2.07E3,4.03E2,6.82E2,1.274E3,9.95E2,2.236E3],"tree_param":{"num_deleted":"0","num_feature":"9","num_nodes":"15","size_leaf_vector":"1"}},{"base_weights":[7.914794E-3,-5.607306E-1,6.619748E-1,-6.821544E-1,-1.0347826E-1,4.067262E-1,8.317005E-1,-4.3257494E-2,-2.7564356E-2,-1.2753278E-2,1.5224359E-2,8.418658E-3,3.0536586E-2,3.3145435E-2,4.536004E-2],"categories":[],"categories_nodes":[],"categories_segments":[],"categories_sizes":[],"default_left":[0,0,0,0,0,0,0,0,0,0,0,0,0,0,0],"id":5,"left_children":[1,3,5,7,9,11,13,-1,-1,-1,-1,-1,-1,-1,-1],"loss_changes":[3.8066843E3,3.039088E2,2.0587549E2,1.0312244E2,7.11964E1,9.243118E1,3.5820557E1,0E0,0E0,0E0,0E0,0E0,0E0,0E0,0E0],"parents":[2147483647,0,0,1,1,2,2,3,3,4,4,5,5,6,6],"right_children":[2,4,6,8,10,12,14,-1,-1,-1,-1,-1,-1,-1,-1],"split_conditions":[2.1666667E0,1.6166667E0,3.15E0,6.333333E-1,8.660254E-1,2.3166666E0,-2.5881904E-1,-5.528071E-2,-3.3695586E-2,-1.3930291E-2,1.33643625E-2,8.839083E-3,3.0515557E-2,8.3182365E-2,8.074888E-2],"split_indices":[0,0,0,0,7,3,7,0,0,0,0,0,0,0,0],"split_type":[0,0,0,0,0,0,0,0,0,0,0,0,0,0,0],"sum_hessian":[1.0233E4,5.474E3,4.759E3,4.325E3,1.149E3,1.902E3,2.857E3,1.801E3,2.524E3,8.38E2,3.11E2,8.78E2,1.024E3,8.86E2,1.971E3],"tree_param":{"num_deleted":"0","num_feature":"9","num_nodes":"15","size_leaf_vector":"1"}},{"base_weights":[1.4363885E-2,-5.4027396E-1,6.523109E-1,-6.7597353E-1,-1.4213927E-1,3.9411455E-1,8.240028E-1,-4.2314094E-2,-2.7059598E-2,-1.9180087E-2,4.5007034E-3,8.077361E-3,2.9658535E-2,3.2468997E-2,4.5106493E-2],"categories":[],"categories_nodes":[],"categories_segments":[],"categories_sizes":[],"default_left":[0,0,0,0,0,0,0,0,0,0,0,0,0,0,0],"id":6,"left_children":[1,3,5,7,9,11,13,-1,-1,-1,-1,-1,-1,-1,-1],"loss_changes":[3.621444E3,2.957002E2,2.1068713E2,9.3265015E1,7.812099E1,8.800159E1,3.840515E1,0E0,0E0,0E0,0E0,0E0,0E0,0E0,0E0],"parents":[2147483647,0,0,1,1,2,2,3,3,4,4,5,5,6,6],"right_children":[2,4,6,8,10,12,14,-1,-1,-1,-1,-1,-1,-1,-1],"split_conditions":[2.1666667E0,1.5E0,3.15E0,6.333333E-1,1.86E0,2.3166666E0,-2.5881904E-1,-5.2516676E-2,-3.288243E-2,-2.1874497E-2,4.091594E-3,8.397127E-3,2.8989775E-2,7.902325E-2,7.671144E-2],"split_indices":[0,0,0,0,3,3,7,0,0,0,0,0,0,0,0],"split_type":[0,0,0,0,0,0,0,0,0,0,0,0,0,0,0],"sum_hessian":[1.0233E4,5.474E3,4.759E3,4.082E3,1.392E3,1.902E3,2.857E3,1.801E3,2.281E3,6.82E2,7.1E2,8.78E2,1.024E3,8.86E2,1.971E3],"tree_param":{"num_deleted":"0","num_feature":"9","num_nodes":"15","size_leaf_vector":"1"}},{"base_weights":[1.338675E-2,-5.26758E-1,6.346639E-1,-7.196993E-1,-2.566798E-1,3.5550323E-1,7.893534E-1,-4.1426193E-2,-2.891523E-2,-2.5994182E-2,-1.9952115E-3,7.0121954E-3,2.7784092E-2,2.973545E-2,4.3791313E-2],"categories":[],"categories_nodes":[],"categories_segments":[],"categories_sizes":[],"default_left":[0,0,0,0,0,0,0,0,0,0,0,0,0,0,0],"id":7,"left_children":[1,3,5,7,9,11,13,-1,-1,-1,-1,-1,-1,-1,-1],"loss_changes":[3.4346558E3,2.851134E2,2.0527148E2,4.86521E1,1.3023846E2,7.313252E1,5.101709E1,0E0,0E0,0E0,0E0,0E0,0E0,0E0,0E0],"parents":[2147483647,0,0,1,1,2,2,3,3,4,4,5,5,6,6],"right_children":[2,4,6,8,10,12,14,-1,-1,-1,-1,-1,-1,-1,-1],"split_conditions":[2.1666667E0,1.1166667E0,3.0333333E0,6.333333E-1,1.5333333E0,1.2246469E-16,-2.5881904E-1,-4.989084E-2,-3.6200017E-2,-2.7071644E-2,-1.8459589E-3,7.6022744E-3,2.9097462E-2,6.7155406E-2,6.870921E-2],"split_indices":[0,0,0,0,3,7,7,0,0,0,0,0,0,0,0],"split_type":[0,0,0,0,0,0,0,0,0,0,0,0,0,0,0],"sum_hessian":[1.0233E4,5.474E3,4.759E3,3.192E3,2.282E3,1.698E3,3.061E3,1.801E3,1.391E3,1.03E3,1.252E3,8.19E2,8.79E2,9.44E2,2.117E3],"tree_param":{"num_deleted":"0","num_feature":"9","num_nodes":"15","size_leaf_vector":"1"}},{"base_weights":[1.3777604E-2,-5.567664E-1,5.6881267E-1,-7.631912E-1,-3.7402016E-1,1.3636364E-1,7.0017594E-1,-4.008205E-2,-2.466443E-2,-2.428782E-2,-1.0093168E-3,-3.8397328E-3,1.7238563E-2,2.4017295E-2,4.015879E-2],"categories":[],"categories_nodes":[],"categories_segments":[],"categories_sizes":[],"default_left":[0,0,0,0,0,0,0,0,0,0,0,0,0,0,0],"id":8,"left_children":[1,3,5,7,9,11,13,-1,-1,-1,-1,-1,-1,-1,-1],"loss_changes":[3.241137E3,1.9010437E2,2.946239E2,2.4189331E1,1.0590729E2,5.377929E1,8.970862E1,0E0,0E0,0E0,0E0,0E0,0E0,0E0,0E0],"parents":[2147483647,0,0,1,1,2,2,3,3,4,4,5,5,6,6],"right_children":[2,4,6,8,10,12,14,-1,-1,-1,-1,-1,-1,-1,-1],"split_conditions":[1.95E0,8.333333E-1,2.55E0,9.659258E-1,8.660254E-1,1.2246469E-16,-2.5881904E-1,-4.8054304E-2,-2.3646295E-2,-2.751273E-2,-7.522106E-4,-3.6961199E-3,1.7175687E-2,4.1553356E-2,5.610708E-2],"split_indices":[0,0,0,7,7,7,7,0,0,0,0,0,0,0,0],"split_type":[0,0,0,0,0,0,0,0,0,0,0,0,0,0,0],"sum_hessian":[1.0233E4,5.046E3,5.187E3,2.368E3,2.678E3,1.209E3,3.978E3,2.071E3,2.97E2,2.035E3,6.43E2,5.98E2,6.11E2,1.271E3,2.707E3],"tree_param":{"num_deleted":"0","num_feature":"9","num_nodes":"15","size_leaf_vector":"1"}},{"base_weights":[1.4559312E-2,-4.9424657E-1,5.997899E-1,-6.942696E-1,-2.4827024E-1,3.515585E-1,7.728245E-1,-3.948391E-2,-2.7627258E-2,-2.4149956E-2,-2.1357744E-3,5.9331176E-3,2.803104E-2,2.9071102E-2,4.2938437E-2],"categories":[],"categories_nodes":[],"categories_segments":[],"categories_sizes":[],"default_left":[0,0,0,0,0,0,0,0,0,0,0,0,0,0,0],"id":9,"left_children":[1,3,5,7,9,11,13,-1,-1,-1,-1,-1,-1,-1,-1],"loss_changes":[3.047662E3,2.6920264E2,2.0418274E2,4.0385864E1,1.1852872E2,9.521939E1,4.5626343E1,0E0,0E0,0E0,0E0,0E0,0E0,0E0,0E0],"parents":[2147483647,0,0,1,1,2,2,3,3,4,4,5,5,6,6],"right_children":[2,4,6,8,10,12,14,-1,-1,-1,-1,-1,-1,-1,-1],"split_conditions":[2.1666667E0,1.05E0,3.1833334E0,6.333333E-1,1.5666667E0,1.2246469E-16,-2.5881904E-1,-4.5493577E-2,-3.331825E-2,-2.5150338E-2,-2.3452253E-3,5.6715547E-3,2.7079975E-2,7.056057E-2,6.830173E-2],"split_indices":[0,0,0,0,3,7,7,0,0,0,0,0,0,0,0],"split_type":[0,0,0,0,0,0,0,0,0,0,0,0,0,0,0],"sum_hessian":[1.0233E4,5.474E3,4.759E3,3.018E3,2.456E3,1.956E3,2.803E3,1.801E3,1.217E3,1.146E3,1.31E3,9.26E2,1.03E3,8.71E2,1.932E3],"tree_param":{"num_deleted":"0","num_feature":"9","num_nodes":"15","size_leaf_vector":"1"}},{"base_weights":[1.0259918E-2,-5.6000847E-1,4.975539E-1,-7.3111016E-1,-3.8713798E-1,9.474368E-2,6.534305E-1,-3.863417E-2,-2.1979867E-2,-2.344932E-2,2.8688523E-3,-1.3478261E-3,2.2576531E-2,2.6403824E-2,4.3362834E-2],"categories":[],"categories_nodes":[],"categories_segments":[],"categories_sizes":[],"default_left":[0,0,0,0,0,0,0,0,0,0,0,0,0,0,0],"id":10,"left_children":[1,3,5,7,9,11,13,-1,-1,-1,-1,-1,-1,-1,-1],"loss_changes":[2.8441882E3,1.3920886E2,3.4646875E2,2.8370605E1,8.545383E1,6.6924E1,1.0619507E2,0E0,0E0,0E0,0E0,0E0,0E0,0E0,0E0],"parents":[2147483647,0,0,1,1,2,2,3,3,4,4,5,5,6,6],"right_children":[2,4,6,8,10,12,14,-1,-1,-1,-1,-1,-1,-1,-1],"split_conditions":[1.7833333E0,8.333333E-1,2.55E0,9.659258E-1,9.659258E-1,8.660254E-1,4.15E0,-4.355223E-2,-2.0622736E-2,-2.6334122E-2,1.4774323E-3,-9.230852E-4,2.2096468E-2,2.9053306E-2,1.3905333E-1],"split_indices":[0,0,0,7,7,7,0,0,0,0,0,0,0,0,0],"split_type":[0,0,0,0,0,0,0,0,0,0,0,0,0,0,0],"sum_hessian":[1.0233E4,4.715E3,5.518E3,2.368E3,2.347E3,1.54E3,3.978E3,2.071E3,2.97E2,1.982E3,3.65E2,1.149E3,3.91E2,2.51E3,1.468E3],"tree_param":{"num_deleted":"0","num_feature":"9","num_nodes":"15","size_leaf_vector":"1"}},{"base_weights":[9.282783E-3,-5.104022E-1,5.148419E-1,-7.1042794E-1,-3.279061E-1,2.896735E-1,7.4677104E-1,-3.760704E-2,-2.1078432E-2,-2.1801893E-2,7.898894E-4,1.4838129E-3,2.3965856E-2,2.7770936E-2,4.1771792E-2],"categories":[],"categories_nodes":[],"categories_segments":[],"categories_sizes":[],"default_left":[0,0,0,0,0,0,0,0,0,0,0,0,0,0,0],"id":11,"left_children":[1,3,5,7,9,11,13,-1,-1,-1,-1,-1,-1,-1,-1],"loss_changes":[2.6890571E3,1.8400232E2,2.7071716E2,2.868518E1,9.816046E1,1.2985995E2,4.2884766E1,0E0,0E0,0E0,0E0,0E0,0E0,0E0,0E0],"parents":[2147483647,0,0,1,1,2,2,3,3,4,4,5,5,6,6],"right_children":[2,4,6,8,10,12,14,-1,-1,-1,-1,-1,-1,-1,-1],"split_conditions":[1.95E0,8.5E-1,3.3333333E0,9.659258E-1,8.660254E-1,2.1666667E0,-2.5881904E-1,-4.1196045E-2,-1.915816E-2,-2.4184082E-2,5.7021977E-4,1.4984608E-3,2.1955812E-2,6.8732046E-2,6.793397E-2],"split_indices":[0,0,0,7,7,3,7,0,0,0,0,0,0,0,0],"split_type":[0,0,0,0,0,0,0,0,0,0,0,0,0,0,0],"sum_hessian":[1.0233E4,5.046E3,5.187E3,2.406E3,2.64E3,2.633E3,2.554E3,2.101E3,3.05E2,2.008E3,6.32E2,1.111E3,1.522E3,8.11E2,1.743E3],"tree_param":{"num_deleted":"0","num_feature":"9","num_nodes":"15","size_leaf_vector":"1"}},{"base_weights":[7.52394E-3,-5.2650553E-1,4.6385214E-1,-7.430633E-1,-3.9245284E-1,2.455312E-1,7.1702546E-1,-3.895608E-2,-2.4784483E-2,-2.3490338E-2,2.6620373E-3,6.423983E-4,2.2683706E-2,2.7752293E-2,4.1848566E-2],"categories":[],"categories_nodes":[],"categories_segments":[],"categories_sizes":[],"default_left":[0,0,0,0,0,0,0,0,0,0,0,0,0,0,0],"id":12,"left_children":[1,3,5,7,9,11,13,-1,-1,-1,-1,-1,-1,-1,-1],"loss_changes":[2.4941956E3,1.366145E2,3.0487573E2,1.5687439E1,1.0052298E2,1.4359317E2,4.9176025E1,0E0,0E0,0E0,0E0,0E0,0E0,0E0,0E0],"parents":[2147483647,0,0,1,1,2,2,3,3,4,4,5,5,6,6],"right_children":[2,4,6,8,10,12,14,-1,-1,-1,-1,-1,-1,-1,-1],"split_conditions":[1.7833333E0,6.333333E-1,3.3333333E0,9.659258E-1,9.659258E-1,2.3166666E0,0E0,-4.0981483E-2,-2.3200253E-2,-2.5558991E-2,7.832587E-4,4.6645405E-4,2.0748263E-2,6.1703946E-2,6.587062E-2],"split_indices":[0,0,0,7,7,3,7,0,0,0,0,0,0,0,0],"split_type":[0,0,0,0,0,0,0,0,0,0,0,0,0,0,0],"sum_hessian":[1.0233E4,4.715E3,5.518E3,1.801E3,2.914E3,2.964E3,2.554E3,1.57E3,2.31E2,2.483E3,4.31E2,1.4E3,1.564E3,1.089E3,1.465E3],"tree_param":{"num_deleted":"0","num_feature":"9","num_nodes":"15","size_leaf_vector":"1"}},{"base_weights":[9.673637E-3,-4.3543378E-1,5.2163863E-1,-6.213978E-1,-2.067562E-1,3.6458334E-1,7.831933E-1,-3.3466212E-2,-1.4637306E-2,-1.9413093E-2,3.5429583E-4,4.4308635E-3,2.9046763E-2,3.1940512E-2,4.3842595E-2],"categories":[],"categories_nodes":[],"categories_segments":[],"categories_sizes":[],"default_left":[0,0,0,0,0,0,0,0,0,0,0,0,0,0,0],"id":13,"left_children":[1,3,5,7,9,11,13,-1,-1,-1,-1,-1,-1,-1,-1],"loss_changes":[2.332345E3,2.3270032E2,1.9524829E2,4.7356567E1,9.5367645E1,1.7763297E2,2.3578003E1,0E0,0E0,0E0,0E0,0E0,0E0,0E0,0E0],"parents":[2147483647,0,0,1,1,2,2,3,3,4,4,5,5,6,6],"right_children":[2,4,6,8,10,12,14,-1,-1,-1,-1,-1,-1,-1,-1],"split_conditions":[2.1666667E0,1.05E0,3.84E0,9.659258E-1,1.8833333E0,1.2246469E-16,4.75E0,-3.513698E-2,-1.4540237E-2,-2.0105317E-2,2.8134882E-4,4.3249726E-3,2.7577091E-2,4.924376E-2,1.7605807E-1],"split_indices":[0,0,0,7,3,7,0,0,0,0,0,0,0,0,0],"split_type":[0,0,0,0,0,0,0,0,0,0,0,0,0,0,0],"sum_hessian":[1.0233E4,5.474E3,4.759E3,3.018E3,2.456E3,2.975E3,1.784E3,2.633E3,3.85E2,1.328E3,1.128E3,1.308E3,1.667E3,7.05E2,1.079E3],"tree_param":{"num_deleted":"0","num_feature":"9","num_nodes":"15","size_leaf_vector":"1"}},{"base_weights":[1.2018761E-2,-4.874894E-1,4.3884763E-1,-6.9543976E-1,-3.5408697E-1,2.5097802E-1,7.2280383E-1,-3.676837E-2,-2.1097047E-2,-2.1355657E-2,3.2786883E-3,8.5245905E-4,2.245692E-2,2.8475104E-2,4.2098865E-2],"categories":[],"categories_nodes":[],"categories_segments":[],"categories_sizes":[],"default_left":[0,0,0,0,0,0,0,0,0,0,0,0,0,0,0],"id":14,"left_children":[1,3,5,7,9,11,13,-1,-1,-1,-1,-1,-1,-1,-1],"loss_changes":[2.1821487E3,1.3058069E2,2.9423926E2,1.9804688E1,8.8135864E1,1.5403143E2,3.965857E1,0E0,0E0,0E0,0E0,0E0,0E0,0E0,0E0],"parents":[2147483647,0,0,1,1,2,2,3,3,4,4,5,5,6,6],"right_children":[2,4,6,8,10,12,14,-1,-1,-1,-1,-1,-1,-1,-1],"split_conditions":[1.7833333E0,6.5E-1,3.5666666E0,9.659258E-1,9.659258E-1,1.2246469E-16,0E0,-3.7175562E-2,-2.131323E-2,-2.28025E-2,1.5226782E-3,6.833106E-4,2.0876592E-2,6.9755174E-2,7.0448235E-2],"split_indices":[0,0,0,7,7,7,7,0,0,0,0,0,0,0,0],"split_type":[0,0,0,0,0,0,0,0,0,0,0,0,0,0,0],"sum_hessian":[1.0233E4,4.715E3,5.518E3,1.841E3,2.874E3,3.322E3,2.196E3,1.605E3,2.36E2,2.448E3,4.26E2,1.524E3,1.798E3,9.63E2,1.233E3],"tree_param":{"num_deleted":"0","num_feature":"9","num_nodes":"15","size_leaf_vector":"1"}},{"base_weights":[1.1823334E-2,-3.8746488E-1,5.128883E-1,-5.5807936E-1,-1.19873814E-1,3.783784E-1,7.9373723E-1,-3.0558309E-2,-1.0066371E-2,-1.4657415E-2,3.3739456E-3,5.692884E-3,2.9073114E-2,3.5158817E-2,4.7037702E-2],"categories":[],"categories_nodes":[],"categories_segments":[],"categories_sizes":[],"default_left":[0,0,0,0,0,0,0,0,0,0,0,0,0,0,0],"id":15,"left_children":[1,3,5,7,9,11,13,-1,-1,-1,-1,-1,-1,-1,-1],"loss_changes":[2.0477083E3,2.5998352E2,1.7116943E2,6.5746216E1,7.2056175E1,1.6490762E2,1.8896667E1,0E0,0E0,0E0,0E0,0E0,0E0,0E0,0E0],"parents":[2147483647,0,0,1,1,2,2,3,3,4,4,5,5,6,6],"right_children":[2,4,6,8,10,12,14,-1,-1,-1,-1,-1,-1,-1,-1],"split_conditions":[2.2666667E0,1.2333333E0,4.15E0,9.659258E-1,1.9E0,1.2246469E-16,6.7E0,-3.081192E-2,-1.0513234E-2,-1.5127775E-2,3.0354292E-3,6.324947E-3,2.7654398E-2,6.9425836E-2,2.9342628E-1],"split_indices":[0,0,0,7,3,7,0,0,0,0,0,0,0,0,0],"split_type":[0,0,0,0,0,0,0,0,0,0,0,0,0,0,0],"sum_hessian":[1.0233E4,5.695E3,4.538E3,3.477E3,2.218E3,3.07E3,1.468E3,3.026E3,4.51E2,1.152E3,1.066E3,1.334E3,1.736E3,9.12E2,5.56E2],"tree_param":{"num_deleted":"0","num_feature":"9","num_nodes":"15","size_leaf_vector":"1"}},{"base_weights":[1.6122729E-2,-3.578373E-1,5.176121E-1,-5.3392756E-1,-1.0100587E-1,3.7982094E-1,7.896528E-1,-2.930294E-2,-9.181417E-3,1.9614836E-3,-1.502538E-2,5.4805405E-3,2.9313488E-2,3.504929E-2,4.6678636E-2],"categories":[],"categories_nodes":[],"categories_segments":[],"categories_sizes":[],"default_left":[0,0,0,0,0,0,0,0,0,0,0,0,0,0,0],"id":16,"left_children":[1,3,5,7,9,11,13,-1,-1,-1,-1,-1,-1,-1,-1],"loss_changes":[1.9194384E3,2.6510327E2,1.6358362E2,6.3406067E1,6.676547E1,1.6193408E2,1.8091492E1,0E0,0E0,0E0,0E0,0E0,0E0,0E0,0E0],"parents":[2147483647,0,0,1,1,2,2,3,3,4,4,5,5,6,6],"right_children":[2,4,6,8,10,12,14,-1,-1,-1,-1,-1,-1,-1,-1],"split_conditions":[2.35E0,1.2333333E0,4.15E0,9.659258E-1,5E-1,1.2246469E-16,6.7E0,-2.9271325E-2,-9.987575E-3,1.7917037E-3,-1.3646796E-2,6.634969E-3,2.710501E-2,6.595454E-2,2.7875495E-1],"split_indices":[0,0,0,7,8,7,0,0,0,0,0,0,0,0,0],"split_type":[0,0,0,0,0,0,0,0,0,0,0,0,0,0,0],"sum_hessian":[1.0233E4,5.862E3,4.371E3,3.477E3,2.385E3,2.903E3,1.468E3,3.026E3,4.51E2,1.401E3,9.84E2,1.258E3,1.645E3,9.12E2,5.56E2],"tree_param":{"num_deleted":"0","num_feature":"9","num_nodes":"15","size_leaf_vector":"1"}},{"base_weights":[1.8467853E-2,-3.4129807E-1,5.0830644E-1,-5.9518784E-1,-1.7095952E-1,3.7159804E-1,7.746767E-1,-3.1925675E-2,-1.4597316E-2,-1.52530465E-2,1.6785715E-3,5.3441296E-3,2.8584559E-2,3.4501642E-2,4.560144E-2],"categories":[],"categories_nodes":[],"categories_segments":[],"categories_sizes":[],"default_left":[0,0,0,0,0,0,0,0,0,0,0,0,0,0,0],"id":17,"left_children":[1,3,5,7,9,11,13,-1,-1,-1,-1,-1,-1,-1,-1],"loss_changes":[1.8036829E3,2.5510004E2,1.5753491E2,3.0937866E1,9.6912964E1,1.5174448E2,1.6449219E1,0E0,0E0,0E0,0E0,0E0,0E0,0E0,0E0],"parents":[2147483647,0,0,1,1,2,2,3,3,4,4,5,5,6,6],"right_children":[2,4,6,8,10,12,14,-1,-1,-1,-1,-1,-1,-1,-1],"split_conditions":[2.3666666E0,8.333333E-1,4.15E0,9.659258E-1,2.15E0,1.2246469E-16,6.7E0,-3.0645952E-2,-1.5889198E-2,-1.671921E-2,1.1370361E-3,6.3858214E-3,2.5771176E-2,6.265682E-2,2.648172E-1],"split_indices":[0,0,0,7,3,7,0,0,0,0,0,0,0,0,0],"split_type":[0,0,0,0,0,0,0,0,0,0,0,0,0,0,0],"sum_hessian":[1.0233E4,5.9E3,4.333E3,2.368E3,3.532E3,2.865E3,1.468E3,2.071E3,2.97E2,2.133E3,1.399E3,1.234E3,1.631E3,9.12E2,5.56E2],"tree_param":{"num_deleted":"0","num_feature":"9","num_nodes":"15","size_leaf_vector":"1"}},{"base_weights":[2.0422122E-2,-3.2740214E-1,4.940009E-1,-4.9473384E-1,-8.1205525E-2,3.5903698E-1,7.5697756E-1,-3.7355583E-2,-2.1133456E-2,2.27758E-3,-1.3096447E-2,5.020243E-3,2.7726715E-2,3.402218E-2,4.5711298E-2],"categories":[],"categories_nodes":[],"categories_segments":[],"categories_sizes":[],"default_left":[0,0,0,0,0,0,0,0,0,0,0,0,0,0,0],"id":18,"left_children":[1,3,5,7,9,11,13,-1,-1,-1,-1,-1,-1,-1,-1],"loss_changes":[1.6859288E3,2.430603E2,1.5355212E2,6.3577087E1,5.47391E1,1.448547E2,1.7057129E1,0E0,0E0,0E0,0E0,0E0,0E0,0E0,0E0],"parents":[2147483647,0,0,1,1,2,2,3,3,4,4,5,5,6,6],"right_children":[2,4,6,8,10,12,14,-1,-1,-1,-1,-1,-1,-1,-1],"split_conditions":[2.3666666E0,1.25E0,4.15E0,2.8333333E-1,5E-1,1.2246469E-16,7.3166666E0,-3.6613654E-2,-2.0780323E-2,2.4031848E-3,-1.2315891E-2,6.066531E-3,2.448262E-2,6.425955E-2,2.7691752E-1],"split_indices":[0,0,0,0,8,7,0,0,0,0,0,0,0,0,0],"split_type":[0,0,0,0,0,0,0,0,0,0,0,0,0,0,0],"sum_hessian":[1.0233E4,5.9E3,4.333E3,3.512E3,2.388E3,2.865E3,1.468E3,7.78E2,2.734E3,1.404E3,9.84E2,1.234E3,1.631E3,9.91E2,4.77E2],"tree_param":{"num_deleted":"0","num_feature":"9","num_nodes":"15","size_leaf_vector":"1"}},{"base_weights":[1.866328E-2,-4.0818492E-1,3.834028E-1,-6.064061E-1,-2.8104347E-1,2.0343064E-1,6.5543926E-1,-3.6457E-2,-2.5798872E-2,-1.706819E-2,3.2786883E-3,-0E0,1.8788217E-2,2.580501E-2,3.9953705E-2],"categories":[],"categories_nodes":[],"categories_segments":[],"categories_sizes":[],"default_left":[0,0,0,0,0,0,0,0,0,0,0,0,0,0,0],"id":19,"left_children":[1,3,5,7,9,11,13,-1,-1,-1,-1,-1,-1,-1,-1],"loss_changes":[1.5934716E3,1.186828E2,2.7007123E2,2.0067505E1,6.0133087E1,1.16497574E2,4.3558228E1,0E0,0E0,0E0,0E0,0E0,0E0,0E0,0E0],"parents":[2147483647,0,0,1,1,2,2,3,3,4,4,5,5,6,6],"right_children":[2,4,6,8,10,12,14,-1,-1,-1,-1,-1,-1,-1,-1],"split_conditions":[1.7833333E0,6.5E-1,3.5666666E0,2.8333333E-1,9.659258E-1,1.2246469E-16,4.75E0,-3.4782972E-2,-2.1407971E-2,-1.8004565E-2,3.3118487E-3,-8.7738035E-6,1.6535563E-2,2.9675161E-2,1.3322265E-1],"split_indices":[0,0,0,0,7,7,0,0,0,0,0,0,0,0,0],"split_type":[0,0,0,0,0,0,0,0,0,0,0,0,0,0,0],"sum_hessian":[1.0233E4,4.715E3,5.518E3,1.841E3,2.874E3,3.322E3,2.196E3,7.78E2,1.063E3,2.448E3,4.26E2,1.524E3,1.798E3,1.117E3,1.079E3],"tree_param":{"num_deleted":"0","num_feature":"9","num_nodes":"15","size_leaf_vector":"1"}},{"base_weights":[1.8077E-2,-3.111337E-1,4.663129E-1,-5.0016564E-1,-1.1307666E-1,3.3948958E-1,7.4428886E-1,-3.594352E-2,-2.1195894E-2,-1.2882239E-2,2.5983667E-3,4.8273155E-3,2.6041055E-2,3.3352274E-2,4.4246864E-2],"categories":[],"categories_nodes":[],"categories_segments":[],"categories_sizes":[],"default_left":[0,0,0,0,0,0,0,0,0,0,0,0,0,0,0],"id":20,"left_children":[1,3,5,7,9,11,13,-1,-1,-1,-1,-1,-1,-1,-1],"loss_changes":[1.5103156E3,2.2087158E2,1.5253735E2,5.0039307E1,6.880205E1,1.3114035E2,1.4152405E1,0E0,0E0,0E0,0E0,0E0,0E0,0E0,0E0],"parents":[2147483647,0,0,1,1,2,2,3,3,4,4,5,5,6,6],"right_children":[2,4,6,8,10,12,14,-1,-1,-1,-1,-1,-1,-1,-1],"split_conditions":[2.3666666E0,1.05E0,4.2833333E0,2.8333333E-1,1.9E0,1.2246469E-16,7.3166666E0,-3.304382E-2,-1.9930968E-2,-1.35674095E-2,2.7080239E-3,5.776727E-3,2.2608055E-2,6.1642468E-2,2.564105E-1],"split_indices":[0,0,0,0,3,7,0,0,0,0,0,0,0,0,0],"split_type":[0,0,0,0,0,0,0,0,0,0,0,0,0,0,0],"sum_hessian":[1.0233E4,5.9E3,4.333E3,3.018E3,2.882E3,2.977E3,1.356E3,7.78E2,2.24E3,1.536E3,1.346E3,1.273E3,1.704E3,8.79E2,4.77E2],"tree_param":{"num_deleted":"0","num_feature":"9","num_nodes":"15","size_leaf_vector":"1"}},{"base_weights":[1.6318155E-2,-3.8401186E-1,3.5839826E-1,-5.72747E-1,-2.6295653E-1,2.0298004E-1,6.3983697E-1,-3.2373816E-2,-2.0347826E-2,-1.7035699E-2,-1.5082957E-4,1.5923567E-4,1.8033199E-2,2.6862582E-2,4.01455E-2],"categories":[],"categories_nodes":[],"categories_segments":[],"categories_sizes":[],"default_left":[0,0,0,0,0,0,0,0,0,0,0,0,0,0,0],"id":21,"left_children":[1,3,5,7,9,11,13,-1,-1,-1,-1,-1,-1,-1,-1],"loss_changes":[1.4016321E3,1.0759772E2,2.4127509E2,2.25578E1,5.8109222E1,1.1206041E2,3.240747E1,0E0,0E0,0E0,0E0,0E0,0E0,0E0,0E0],"parents":[2147483647,0,0,1,1,2,2,3,3,4,4,5,5,6,6],"right_children":[2,4,6,8,10,12,14,-1,-1,-1,-1,-1,-1,-1,-1],"split_conditions":[1.7833333E0,6.5E-1,3.7166667E0,1.7E0,8.660254E-1,2.3166666E0,5.75E0,-2.8507693E-2,-1.5366326E-2,-1.7386701E-2,-1.5206933E-4,1.4395714E-4,1.5059233E-2,3.4242667E-2,1.7161229E-1],"split_indices":[0,0,0,3,7,3,0,0,0,0,0,0,0,0,0],"split_type":[0,0,0,0,0,0,0,0,0,0,0,0,0,0,0],"sum_hessian":[1.0233E4,4.715E3,5.518E3,1.841E3,2.874E3,3.556E3,1.962E3,1.267E3,5.74E2,2.212E3,6.62E2,1.569E3,1.987E3,1.207E3,7.55E2],"tree_param":{"num_deleted":"0","num_feature":"9","num_nodes":"15","size_leaf_vector":"1"}},{"base_weights":[2.0422122E-2,-3.640797E-1,3.4897625E-1,-5.423453E-1,-2.4973913E-1,1.8417093E-1,5.980883E-1,-3.3633094E-2,-2.1704657E-2,-1.6177136E-2,-1.5082957E-4,-6.5573775E-5,1.7065037E-2,2.6681488E-2,4.4360902E-2],"categories":[],"categories_nodes":[],"categories_segments":[],"categories_sizes":[],"default_left":[0,0,0,0,0,0,0,0,0,0,0,0,0,0,0],"id":22,"left_children":[1,3,5,7,9,11,13,-1,-1,-1,-1,-1,-1,-1,-1],"loss_changes":[1.292985E3,9.599072E1,2.2647229E2,2.5693176E1,5.23499E1,9.6848656E1,4.04718E1,0E0,0E0,0E0,0E0,0E0,0E0,0E0,0E0],"parents":[2147483647,0,0,1,1,2,2,3,3,4,4,5,5,6,6],"right_children":[2,4,6,8,10,12,14,-1,-1,-1,-1,-1,-1,-1,-1],"split_conditions":[1.7833333E0,6.5E-1,3.5666666E0,9.3333334E-1,8.660254E-1,1.2246469E-16,8.033334E0,-2.812331E-2,-1.9343352E-2,-1.6517367E-2,-1.4446377E-4,-1.3720394E-4,1.4306271E-2,3.5598863E-2,2.6834267E-1],"split_indices":[0,0,0,6,7,7,0,0,0,0,0,0,0,0,0],"split_type":[0,0,0,0,0,0,0,0,0,0,0,0,0,0,0],"sum_hessian":[1.0233E4,4.715E3,5.518E3,1.841E3,2.874E3,3.322E3,2.196E3,8.33E2,1.008E3,2.212E3,6.62E2,1.524E3,1.798E3,1.798E3,3.98E2],"tree_param":{"num_deleted":"0","num_feature":"9","num_nodes":"15","size_leaf_vector":"1"}},{"base_weights":[2.120383E-2,-3.50933E-1,3.3919188E-1,-5.260586E-1,-2.386087E-1,2.0080322E-1,6.2857145E-1,-3.3562586E-2,-2.1550179E-2,-2.008658E-2,-6.449739E-3,7.107709E-4,1.8982695E-2,2.8490692E-2,4.6985816E-2],"categories":[],"categories_nodes":[],"categories_segments":[],"categories_sizes":[],"default_left":[0,0,0,0,0,0,0,0,0,0,0,0,0,0,0],"id":23,"left_children":[1,3,5,7,9,11,13,-1,-1,-1,-1,-1,-1,-1,-1],"loss_changes":[1.2111602E3,9.264227E1,2.2089233E2,2.513272E1,5.1354736E1,1.246366E2,3.2098145E1,0E0,0E0,0E0,0E0,0E0,0E0,0E0,0E0],"parents":[2147483647,0,0,1,1,2,2,3,3,4,4,5,5,6,6],"right_children":[2,4,6,8,10,12,14,-1,-1,-1,-1,-1,-1,-1,-1],"split_conditions":[1.7833333E0,6.5E-1,3.84E0,2.6666668E-1,1.0666667E0,2.55E0,9.35E0,-2.8633952E-2,-1.694847E-2,-2.0630354E-2,-7.0395917E-3,5.651504E-4,1.585021E-2,4.6068918E-2,3.2325888E-1],"split_indices":[0,0,0,0,4,3,0,0,0,0,0,0,0,0,0],"split_type":[0,0,0,0,0,0,0,0,0,0,0,0,0,0,0],"sum_hessian":[1.0233E4,4.715E3,5.518E3,1.841E3,2.874E3,3.734E3,1.784E3,7.26E2,1.115E3,1.154E3,1.72E3,1.828E3,1.906E3,1.503E3,2.81E2],"tree_param":{"num_deleted":"0","num_feature":"9","num_nodes":"15","size_leaf_vector":"1"}},{"base_weights":[2.1008404E-2,-2.6402304E-1,4.090909E-1,-4.0933675E-1,-5.0230224E-2,2.8509066E-1,6.809138E-1,-2.5419611E-2,-1.148E-2,-6.3478746E-3,8.887043E-3,3.257457E-3,2.2463342E-2,3.0622676E-2,4.6985816E-2],"categories":[],"categories_nodes":[],"categories_segments":[],"categories_sizes":[],"default_left":[0,0,0,0,0,0,0,0,0,0,0,0,0,0,0],"id":24,"left_children":[1,3,5,7,9,11,13,-1,-1,-1,-1,-1,-1,-1,-1],"loss_changes":[1.1321492E3,1.8330597E2,1.4588812E2,6.2428406E1,4.1809998E1,1.0750383E2,2.3467407E1,0E0,0E0,0E0,0E0,0E0,0E0,0E0,0E0],"parents":[2147483647,0,0,1,1,2,2,3,3,4,4,5,5,6,6],"right_children":[2,4,6,8,10,12,14,-1,-1,-1,-1,-1,-1,-1,-1],"split_conditions":[2.3666666E0,1.25E0,4.2833333E0,1.7E0,8.660254E-1,1.2246469E-16,9.35E0,-2.2328718E-2,-1.048579E-2,-6.726742E-3,7.1599185E-3,3.3894896E-3,1.8866265E-2,5.861609E-2,3.0709594E-1],"split_indices":[0,0,0,3,7,7,0,0,0,0,0,0,0,0,0],"split_type":[0,0,0,0,0,0,0,0,0,0,0,0,0,0,0],"sum_hessian":[1.0233E4,5.9E3,4.333E3,3.512E3,2.388E3,2.977E3,1.356E3,2.263E3,1.249E3,1.787E3,6.01E2,1.273E3,1.704E3,1.075E3,2.81E2],"tree_param":{"num_deleted":"0","num_feature":"9","num_nodes":"15","size_leaf_vector":"1"}},{"base_weights":[2.0031268E-2,-2.3657124E-1,4.172268E-1,-3.9131686E-1,-4.0131338E-2,3.2277033E-1,7.1891326E-1,-2.455397E-2,-1.0509296E-2,-6.047412E-3,1.037037E-2,4.578606E-3,2.393326E-2,3.1582844E-2,4.6276595E-2],"categories":[],"categories_nodes":[],"categories_segments":[],"categories_sizes":[],"default_left":[0,0,0,0,0,0,0,0,0,0,0,0,0,0,0],"id":25,"left_children":[1,3,5,7,9,11,13,-1,-1,-1,-1,-1,-1,-1,-1],"loss_changes":[1.043162E3,1.8900034E2,1.14237305E2,6.2744507E1,5.4859646E1,1.1028262E2,1.6668976E1,0E0,0E0,0E0,0E0,0E0,0E0,0E0,0E0],"parents":[2147483647,0,0,1,1,2,2,3,3,4,4,5,5,6,6],"right_children":[2,4,6,8,10,12,14,-1,-1,-1,-1,-1,-1,-1,-1],"split_conditions":[2.5333333E0,1.2333333E0,5.0333333E0,1.7E0,8.660254E-1,0E0,9.35E0,-2.1317944E-2,-9.961501E-3,-5.9824674E-3,8.001784E-3,5.2898168E-3,1.9742442E-2,8.546555E-2,2.9174113E-1],"split_indices":[0,0,0,3,7,7,0,0,0,0,0,0,0,0,0],"split_type":[0,0,0,0,0,0,0,0,0,0,0,0,0,0,0],"sum_hessian":[1.0233E4,6.217E3,4.016E3,3.477E3,2.74E3,3.06E3,9.56E2,2.241E3,1.236E3,2.066E3,6.74E2,1.233E3,1.827E3,6.75E2,2.81E2],"tree_param":{"num_deleted":"0","num_feature":"9","num_nodes":"15","size_leaf_vector":"1"}},{"base_weights":[2.120383E-2,-2.259569E-1,4.0378392E-1,-4.001325E-1,-6.15625E-2,2.8260052E-1,6.4112014E-1,-3.080873E-2,-1.6242748E-2,-7.1045025E-3,9.423077E-3,3.0487806E-3,2.1522557E-2,2.8485132E-2,4.5567375E-2],"categories":[],"categories_nodes":[],"categories_segments":[],"categories_sizes":[],"default_left":[0,0,0,0,0,0,0,0,0,0,0,0,0,0,0],"id":26,"left_children":[1,3,5,7,9,11,13,-1,-1,-1,-1,-1,-1,-1,-1],"loss_changes":[9.678057E2,1.780184E2,1.1535254E2,4.8898132E1,6.445501E1,8.7167725E1,2.5669495E1,0E0,0E0,0E0,0E0,0E0,0E0,0E0,0E0],"parents":[2147483647,0,0,1,1,2,2,3,3,4,4,5,5,6,6],"right_children":[2,4,6,8,10,12,14,-1,-1,-1,-1,-1,-1,-1,-1],"split_conditions":[2.5333333E0,1.05E0,4.2833333E0,2.8333333E-1,8.660254E-1,0E0,9.35E0,-2.5730032E-2,-1.416377E-2,-6.9292635E-3,7.1719587E-3,3.5380365E-3,1.7665505E-2,5.3360082E-2,2.7715406E-1],"split_indices":[0,0,0,0,7,7,0,0,0,0,0,0,0,0,0],"split_type":[0,0,0,0,0,0,0,0,0,0,0,0,0,0,0],"sum_hessian":[1.0233E4,6.217E3,4.016E3,3.018E3,3.199E3,2.66E3,1.356E3,7.78E2,2.24E3,2.42E3,7.79E2,1.065E3,1.595E3,1.075E3,2.81E2],"tree_param":{"num_deleted":"0","num_feature":"9","num_nodes":"15","size_leaf_vector":"1"}},{"base_weights":[2.0226695E-2,-3.008906E-1,2.9461858E-1,-5.982028E-1,-2.4200101E-1,1.72548E-1,5.7683074E-1,-3.3693697E-2,-2.0444443E-2,-1.4732802E-2,4.0760874E-3,2.065049E-4,1.7127216E-2,2.4723975E-2,4.185464E-2],"categories":[],"categories_nodes":[],"categories_segments":[],"categories_sizes":[],"default_left":[0,0,0,0,0,0,0,0,0,0,0,0,0,0,0],"id":27,"left_children":[1,3,5,7,9,11,13,-1,-1,-1,-1,-1,-1,-1,-1],"loss_changes":[9.018266E2,8.242572E1,1.9002896E2,1.0884094E1,6.710823E1,1.1034023E2,3.5293213E1,0E0,0E0,0E0,0E0,0E0,0E0,0E0,0E0],"parents":[2147483647,0,0,1,1,2,2,3,3,4,4,5,5,6,6],"right_children":[2,4,6,8,10,12,14,-1,-1,-1,-1,-1,-1,-1,-1],"split_conditions":[1.7833333E0,2.8333333E-1,3.95E0,1.6833333E0,9.659258E-1,2.6333334E0,8.033334E0,-2.6598537E-2,-1.701872E-2,-1.3603399E-2,2.9140473E-3,2.111137E-4,1.4379347E-2,3.7254106E-2,2.1143202E-1],"split_indices":[0,0,0,3,7,3,0,0,0,0,0,0,0,0,0],"split_type":[0,0,0,0,0,0,0,0,0,0,0,0,0,0,0],"sum_hessian":[1.0233E4,4.715E3,5.518E3,7.78E2,3.937E3,3.853E3,1.665E3,5.54E2,2.24E2,3.386E3,5.51E2,1.936E3,1.917E3,1.267E3,3.98E2],"tree_param":{"num_deleted":"0","num_feature":"9","num_nodes":"15","size_leaf_vector":"1"}},{"base_weights":[1.983584E-2,-2.282108E-1,3.5247028E-1,-3.7628353E-1,-7.100176E-2,2.395867E-1,6.261755E-1,-2.2000847E-2,-7.4130106E-3,-9.399736E-3,3.1203008E-3,3.0672825E-3,2.051201E-2,2.7437186E-2,4.4858154E-2],"categories":[],"categories_nodes":[],"categories_segments":[],"categories_sizes":[],"default_left":[0,0,0,0,0,0,0,0,0,0,0,0,0,0,0],"id":28,"left_children":[1,3,5,7,9,11,13,-1,-1,-1,-1,-1,-1,-1,-1],"loss_changes":[8.444761E2,1.3645438E2,1.3493091E2,4.380902E1,4.441584E1,9.417769E1,2.6282043E1,0E0,0E0,0E0,0E0,0E0,0E0,0E0,0E0],"parents":[2147483647,0,0,1,1,2,2,3,3,4,4,5,5,6,6],"right_children":[2,4,6,8,10,12,14,-1,-1,-1,-1,-1,-1,-1,-1],"split_conditions":[2.35E0,1.05E0,4.4E0,8.660254E-1,1.9E0,2.8166666E0,9.35E0,-1.8081125E-2,-6.232521E-3,-9.742218E-3,3.1214417E-3,3.1988383E-3,1.6269196E-2,5.2848186E-2,2.5272477E-1],"split_indices":[0,0,0,7,3,3,0,0,0,0,0,0,0,0,0],"split_type":[0,0,0,0,0,0,0,0,0,0,0,0,0,0,0],"sum_hessian":[1.0233E4,5.862E3,4.371E3,3.018E3,2.844E3,3.096E3,1.275E3,2.358E3,6.6E2,1.515E3,1.329E3,1.515E3,1.581E3,9.94E2,2.81E2],"tree_param":{"num_deleted":"0","num_feature":"9","num_nodes":"15","size_leaf_vector":"1"}},{"base_weights":[2.0031268E-2,-2.7798983E-1,2.7468744E-1,-5.622593E-1,-2.2168614E-1,1.781301E-1,6.1088544E-1,-3.2252252E-2,-1.7777778E-2,-1.3551816E-2,4.0760874E-3,-1.5797789E-4,1.610205E-2,2.6578948E-2,4.3794326E-2],"categories":[],"categories_nodes":[],"categories_segments":[],"categories_sizes":[],"default_left":[0,0,0,0,0,0,0,0,0,0,0,0,0,0,0],"id":29,"left_children":[1,3,5,7,9,11,13,-1,-1,-1,-1,-1,-1,-1,-1],"loss_changes":[7.7676447E2,7.53569E1,1.7905112E2,1.3100998E1,5.8947815E1,1.1189911E2,2.5405457E1,0E0,0E0,0E0,0E0,0E0,0E0,0E0,0E0],"parents":[2147483647,0,0,1,1,2,2,3,3,4,4,5,5,6,6],"right_children":[2,4,6,8,10,12,14,-1,-1,-1,-1,-1,-1,-1,-1],"split_conditions":[1.7833333E0,2.8333333E-1,4.46E0,1.6833333E0,9.659258E-1,1.2246469E-16,9.35E0,-2.4364557E-2,-1.5263728E-2,-1.2317501E-2,3.0694723E-3,-9.273291E-5,1.3043177E-2,5.334046E-2,2.4008854E-1],"split_indices":[0,0,0,3,7,7,0,0,0,0,0,0,0,0,0],"split_type":[0,0,0,0,0,0,0,0,0,0,0,0,0,0,0],"sum_hessian":[1.0233E4,4.715E3,5.518E3,7.78E2,3.937E3,4.288E3,1.23E3,5.54E2,2.24E2,3.386E3,5.51E2,1.898E3,2.39E3,9.49E2,2.81E2],"tree_param":{"num_deleted":"0","num_feature":"9","num_nodes":"15","size_leaf_vector":"1"}},{"base_weights":[1.866328E-2,-2.1408983E-1,3.2719836E-1,-3.5110965E-1,-6.711648E-2,2.4729693E-1,6.8930817E-1,-3.3676095E-2,-1.5165336E-2,-1.0958254E-2,1.1911514E-3,4.391164E-3,2.0804795E-2,3.0866144E-2,4.8447203E-2],"categories":[],"categories_nodes":[],"categories_segments":[],"categories_sizes":[],"default_left":[0,0,0,0,0,0,0,0,0,0,0,0,0,0,0],"id":30,"left_children":[1,3,5,7,9,11,13,-1,-1,-1,-1,-1,-1,-1,-1],"loss_changes":[7.3499915E2,1.1746304E2,1.2716406E2,4.6325287E1,3.894269E1,9.706023E1,1.5404938E1,0E0,0E0,0E0,0E0,0E0,0E0,0E0,0E0],"parents":[2147483647,0,0,1,1,2,2,3,3,4,4,5,5,6,6],"right_children":[2,4,6,8,10,12,14,-1,-1,-1,-1,-1,-1,-1,-1],"split_conditions":[2.3333333E0,1.05E0,5.56E0,1.3333334E-1,1.25E0,2.9166667E0,1.1433333E1,-2.5926832E-2,-1.2306889E-2,-1.0848874E-2,1.3024182E-3,4.1888477E-3,1.7097665E-2,9.035271E-2,2.963185E-1],"split_indices":[0,0,0,0,3,3,0,0,0,0,0,0,0,0,0],"split_type":[0,0,0,0,0,0,0,0,0,0,0,0,0,0,0],"sum_hessian":[1.0233E4,5.833E3,4.4E3,3.018E3,2.815E3,3.606E3,7.94E2,3.88E2,2.63E3,1.053E3,1.762E3,1.855E3,1.751E3,6.34E2,1.6E2],"tree_param":{"num_deleted":"0","num_feature":"9","num_nodes":"15","size_leaf_vector":"1"}},{"base_weights":[1.729529E-2,-1.8961081E-1,3.3756533E-1,-3.3653527E-1,-5.09375E-2,2.5720417E-1,6.8386245E-1,-2.7086008E-2,-1.3253013E-2,-1.1960133E-2,1.1531767E-3,3.169811E-3,1.9478844E-2,3.0285237E-2,4.8447203E-2],"categories":[],"categories_nodes":[],"categories_segments":[],"categories_sizes":[],"default_left":[0,0,0,0,0,0,0,0,0,0,0,0,0,0,0],"id":31,"left_children":[1,3,5,7,9,11,13,-1,-1,-1,-1,-1,-1,-1,-1],"loss_changes":[6.782285E2,1.2667151E2,1.1161258E2,4.4131866E1,4.4587326E1,8.3661545E1,1.6257782E1,0E0,0E0,0E0,0E0,0E0,0E0,0E0,0E0],"parents":[2147483647,0,0,1,1,2,2,3,3,4,4,5,5,6,6],"right_children":[2,4,6,8,10,12,14,-1,-1,-1,-1,-1,-1,-1,-1],"split_conditions":[2.5333333E0,1.05E0,5.75E0,2.8333333E-1,9.8333335E-1,0E0,1.1433333E1,-2.0378746E-2,-1.0945849E-2,-1.2855384E-2,1.347971E-3,3.1843425E-3,1.587776E-2,8.874414E-2,2.8150257E-1],"split_indices":[0,0,0,0,4,7,0,0,0,0,0,0,0,0,0],"split_type":[0,0,0,0,0,0,0,0,0,0,0,0,0,0,0],"sum_hessian":[1.0233E4,6.217E3,4.016E3,3.018E3,3.199E3,3.261E3,7.55E2,7.78E2,2.24E3,9.02E2,2.297E3,1.324E3,1.937E3,5.95E2,1.6E2],"tree_param":{"num_deleted":"0","num_feature":"9","num_nodes":"15","size_leaf_vector":"1"}},{"base_weights":[1.983584E-2,-1.799614E-1,3.2910132E-1,-3.2063597E-1,-4.71875E-2,2.4984673E-1,6.706349E-1,-3.1619538E-2,-1.3721019E-2,-5.700124E-3,8.012821E-3,4.6990174E-3,2.0244649E-2,2.944631E-2,4.8447203E-2],"categories":[],"categories_nodes":[],"categories_segments":[],"categories_sizes":[],"default_left":[0,0,0,0,0,0,0,0,0,0,0,0,0,0,0],"id":32,"left_children":[1,3,5,7,9,11,13,-1,-1,-1,-1,-1,-1,-1,-1],"loss_changes":[6.3242206E2,1.161241E2,1.0856503E2,4.3324036E1,4.437142E1,7.8793076E1,1.7856445E1,0E0,0E0,0E0,0E0,0E0,0E0,0E0,0E0],"parents":[2147483647,0,0,1,1,2,2,3,3,4,4,5,5,6,6],"right_children":[2,4,6,8,10,12,14,-1,-1,-1,-1,-1,-1,-1,-1],"split_conditions":[2.5333333E0,1.05E0,5.75E0,1.3333334E-1,8.660254E-1,2.9166667E0,1.1433333E1,-2.3611551E-2,-1.1074254E-2,-5.9202197E-3,5.724144E-3,4.4932845E-3,1.6750539E-2,8.430693E-2,2.674274E-1],"split_indices":[0,0,0,0,7,3,0,0,0,0,0,0,0,0,0],"split_type":[0,0,0,0,0,0,0,0,0,0,0,0,0,0,0],"sum_hessian":[1.0233E4,6.217E3,4.016E3,3.018E3,3.199E3,3.261E3,7.55E2,3.88E2,2.63E3,2.42E3,7.79E2,1.627E3,1.634E3,5.95E2,1.6E2],"tree_param":{"num_deleted":"0","num_feature":"9","num_nodes":"15","size_leaf_vector":"1"}},{"base_weights":[1.9054133E-2,-2.6098013E-1,2.2406499E-1,-3.8840875E-1,-1.5466101E-1,1.3507159E-1,5.621446E-1,-2.981771E-2,-1.6887626E-2,-1.2123747E-3,-1.4420601E-2,-2.1070374E-4,1.3914174E-2,2.4636276E-2,4.5771144E-2],"categories":[],"categories_nodes":[],"categories_segments":[],"categories_sizes":[],"default_left":[0,0,0,0,0,0,0,0,0,0,0,0,0,0,0],"id":33,"left_children":[1,3,5,7,9,11,13,-1,-1,-1,-1,-1,-1,-1,-1],"loss_changes":[5.87593E2,5.854901E1,1.7770728E2,2.0518402E1,4.1158348E1,9.33349E1,2.9738312E1,0E0,0E0,0E0,0E0,0E0,0E0,0E0,0E0],"parents":[2147483647,0,0,1,1,2,2,3,3,4,4,5,5,6,6],"right_children":[2,4,6,8,10,12,14,-1,-1,-1,-1,-1,-1,-1,-1],"split_conditions":[1.6166667E0,1.0833334E0,4.46E0,2.6E-1,5E-1,2.6333334E0,1.0583333E1,-2.131714E-2,-1.3567388E-2,-5.507052E-4,-1.2303908E-2,-1.635492E-4,1.0913014E-2,4.8690952E-2,2.2915502E-1],"split_indices":[0,3,0,0,8,3,0,0,0,0,0,0,0,0,0],"split_type":[0,0,0,0,0,0,0,0,0,0,0,0,0,0,0],"sum_hessian":[1.0233E4,4.325E3,5.908E3,1.966E3,2.359E3,4.678E3,1.23E3,3.83E2,1.583E3,1.195E3,1.164E3,2.372E3,2.306E3,1.03E3,2E2],"tree_param":{"num_deleted":"0","num_feature":"9","num_nodes":"15","size_leaf_vector":"1"}},{"base_weights":[1.866328E-2,-1.811793E-1,2.8357193E-1,-3.2386363E-1,-6.322379E-2,1.9078752E-1,5.84378E-1,-2.8589744E-2,-1.4038205E-2,-7.556341E-3,7.5026797E-3,6.12392E-4,1.5798787E-2,2.5328556E-2,4.527363E-2],"categories":[],"categories_nodes":[],"categories_segments":[],"categories_sizes":[],"default_left":[0,0,0,0,0,0,0,0,0,0,0,0,0,0,0],"id":34,"left_children":[1,3,5,7,9,11,13,-1,-1,-1,-1,-1,-1,-1,-1],"loss_changes":[5.4183954E2,9.8168106E1,1.2272095E2,2.8049774E1,5.9921673E1,7.520745E1,2.5449066E1,0E0,0E0,0E0,0E0,0E0,0E0,0E0,0E0],"parents":[2147483647,0,0,1,1,2,2,3,3,4,4,5,5,6,6],"right_children":[2,4,6,8,10,12,14,-1,-1,-1,-1,-1,-1,-1,-1],"split_conditions":[2.3333333E0,1.1666666E0,4.85E0,2.3333333E-1,8.660254E-1,0E0,1.0583333E1,-1.8978953E-2,-1.2987101E-2,-7.02792E-3,5.793828E-3,5.7455304E-4,1.2247145E-2,5.6606937E-2,2.176973E-1],"split_indices":[0,4,0,0,7,7,0,0,0,0,0,0,0,0,0],"split_type":[0,0,0,0,0,0,0,0,0,0,0,0,0,0,0],"sum_hessian":[1.0233E4,5.833E3,4.4E3,2.639E3,3.194E3,3.364E3,1.036E3,3.89E2,2.25E3,2.262E3,9.32E2,1.387E3,1.977E3,8.36E2,2E2],"tree_param":{"num_deleted":"0","num_feature":"9","num_nodes":"15","size_leaf_vector":"1"}},{"base_weights":[1.8858707E-2,-1.5808941E-1,2.9275578E-1,-3.0599484E-1,-4.314286E-2,2.136726E-1,6.335979E-1,-2.8076923E-2,-1.3154507E-2,-6.4529064E-3,8.499007E-3,1.8867925E-3,1.6692467E-2,2.7432887E-2,4.7204968E-2],"categories":[],"categories_nodes":[],"categories_segments":[],"categories_sizes":[],"default_left":[0,0,0,0,0,0,0,0,0,0,0,0,0,0,0],"id":35,"left_children":[1,3,5,7,9,11,13,-1,-1,-1,-1,-1,-1,-1,-1],"loss_changes":[4.9604294E2,1.0570039E2,1.08142365E2,2.9663437E1,6.410874E1,6.895752E1,1.9420807E1,0E0,0E0,0E0,0E0,0E0,0E0,0E0,0E0],"parents":[2147483647,0,0,1,1,2,2,3,3,4,4,5,5,6,6],"right_children":[2,4,6,8,10,12,14,-1,-1,-1,-1,-1,-1,-1,-1],"split_conditions":[2.5333333E0,1.1666666E0,5.75E0,2.3333333E-1,8.660254E-1,0E0,1.1433333E1,-1.8030006E-2,-1.2034565E-2,-6.390369E-3,6.218848E-3,1.6019285E-3,1.3453364E-2,7.375043E-2,2.3171346E-1],"split_indices":[0,4,0,0,7,7,0,0,0,0,0,0,0,0,0],"split_type":[0,0,0,0,0,0,0,0,0,0,0,0,0,0,0],"sum_hessian":[1.0233E4,6.217E3,4.016E3,2.718E3,3.499E3,3.261E3,7.55E2,3.89E2,2.329E3,2.494E3,1.005E3,1.324E3,1.937E3,5.95E2,1.6E2],"tree_param":{"num_deleted":"0","num_feature":"9","num_nodes":"15","size_leaf_vector":"1"}},{"base_weights":[2.1985538E-2,-2.2815534E-1,2.0511085E-1,-5.8097684E-1,-1.932453E-1,1.2554744E-1,5.470852E-1,-3.3451956E-2,-1.7431192E-2,-1.5805904E-2,-4.685347E-3,2.0610058E-5,1.2679325E-2,2.3606557E-2,4.4278607E-2],"categories":[],"categories_nodes":[],"categories_segments":[],"categories_sizes":[],"default_left":[0,0,0,0,0,0,0,0,0,0,0,0,0,0,0],"id":36,"left_children":[1,3,5,7,9,11,13,-1,-1,-1,-1,-1,-1,-1,-1],"loss_changes":[4.688369E2,5.3171127E1,1.607072E2,7.726303E0,4.8134293E1,7.682634E1,2.7870514E1,0E0,0E0,0E0,0E0,0E0,0E0,0E0,0E0],"parents":[2147483647,0,0,1,1,2,2,3,3,4,4,5,5,6,6],"right_children":[2,4,6,8,10,12,14,-1,-1,-1,-1,-1,-1,-1,-1],"split_conditions":[1.6166667E0,1.3333334E-1,4.6833334E0,1.6833333E0,1.0833334E0,2.6333334E0,1.0583333E1,-2.0634938E-2,-1.6972838E-2,-1.2364623E-2,-4.4222027E-3,1.3113022E-6,9.683824E-3,4.8316527E-2,1.9987302E-1],"split_indices":[0,0,0,3,3,3,0,0,0,0,0,0,0,0,0],"split_type":[0,0,0,0,0,0,0,0,0,0,0,0,0,0,0],"sum_hessian":[1.0233E4,4.325E3,5.908E3,3.88E2,3.937E3,4.794E3,1.114E3,2.8E2,1.08E2,1.761E3,2.176E3,2.425E3,2.369E3,9.14E2,2E2],"tree_param":{"num_deleted":"0","num_feature":"9","num_nodes":"15","size_leaf_vector":"1"}},{"base_weights":[2.120383E-2,-2.1798427E-1,1.9631071E-1,-5.46083E-1,-1.8135114E-1,1.2679185E-1,5.5590385E-1,-3.152174E-2,-1.5044249E-2,-1.11407405E-2,4.4315993E-3,-1.460768E-4,1.24120405E-2,2.3964869E-2,4.6583854E-2],"categories":[],"categories_nodes":[],"categories_segments":[],"categories_sizes":[],"default_left":[0,0,0,0,0,0,0,0,0,0,0,0,0,0,0],"id":37,"left_children":[1,3,5,7,9,11,13,-1,-1,-1,-1,-1,-1,-1,-1],"loss_changes":[4.2867838E2,5.1896393E1,1.4764569E2,8.786697E0,4.3599915E1,7.802809E1,2.7102295E1,0E0,0E0,0E0,0E0,0E0,0E0,0E0,0E0],"parents":[2147483647,0,0,1,1,2,2,3,3,4,4,5,5,6,6],"right_children":[2,4,6,8,10,12,14,-1,-1,-1,-1,-1,-1,-1,-1],"split_conditions":[1.6166667E0,1.5E-1,5.0333333E0,8.660254E-1,9.659258E-1,2.55E0,1.1433333E1,-1.9430092E-2,-1.1603219E-2,-9.310685E-3,3.6764562E-3,-1.2712479E-4,9.668136E-3,5.8263898E-2,2.1013415E-1],"split_indices":[0,0,0,7,7,3,0,0,0,0,0,0,0,0,0],"split_type":[0,0,0,0,0,0,0,0,0,0,0,0,0,0,0],"sum_hessian":[1.0233E4,4.325E3,5.908E3,4.33E2,3.892E3,4.952E3,9.56E2,3.21E2,1.12E2,3.374E3,5.18E2,2.395E3,2.557E3,7.96E2,1.6E2],"tree_param":{"num_deleted":"0","num_feature":"9","num_nodes":"15","size_leaf_vector":"1"}},{"base_weights":[2.0422122E-2,-1.3911225E-1,2.673637E-1,-2.8480762E-1,-3.9751217E-2,2.0514302E-1,6.535009E-1,-1.840136E-2,-8.412547E-3,-5.9056603E-3,7.912298E-3,2.062937E-3,1.6018702E-2,2.745592E-2,4.5341615E-2],"categories":[],"categories_nodes":[],"categories_segments":[],"categories_sizes":[],"default_left":[0,0,0,0,0,0,0,0,0,0,0,0,0,0,0],"id":38,"left_children":[1,3,5,7,9,11,13,-1,-1,-1,-1,-1,-1,-1,-1],"loss_changes":[4.032125E2,9.00032E1,9.637726E1,2.4391281E1,5.739483E1,6.534621E1,1.4231003E1,0E0,0E0,0E0,0E0,0E0,0E0,0E0,0E0],"parents":[2147483647,0,0,1,1,2,2,3,3,4,4,5,5,6,6],"right_children":[2,4,6,8,10,12,14,-1,-1,-1,-1,-1,-1,-1,-1],"split_conditions":[2.5333333E0,1.0666667E0,6.7E0,1E0,8.660254E-1,0E0,1.1433333E1,-1.2791603E-2,-9.133637E-3,-5.6140902E-3,5.4916204E-3,2.100432E-3,1.255846E-2,8.081843E-2,1.9962743E-1],"split_indices":[0,4,0,0,7,7,0,0,0,0,0,0,0,0,0],"split_type":[0,0,0,0,0,0,0,0,0,0,0,0,0,0,0],"sum_hessian":[1.0233E4,6.217E3,4.016E3,2.52E3,3.697E3,3.46E3,5.56E2,1.469E3,1.051E3,2.649E3,1.048E3,1.429E3,2.031E3,3.96E2,1.6E2],"tree_param":{"num_deleted":"0","num_feature":"9","num_nodes":"15","size_leaf_vector":"1"}},{"base_weights":[1.8467853E-2,-1.8336445E-1,1.9818988E-1,-4.429161E-1,-1.3724054E-1,1.289816E-1,5.2037615E-1,-2.601156E-2,-1.2440192E-2,-1.5721394E-2,-3.979295E-3,-4.284452E-3,1.0099188E-2,2.1100279E-2,4.0625002E-2],"categories":[],"categories_nodes":[],"categories_segments":[],"categories_sizes":[],"default_left":[0,0,0,0,0,0,0,0,0,0,0,0,0,0,0],"id":39,"left_children":[1,3,5,7,9,11,13,-1,-1,-1,-1,-1,-1,-1,-1],"loss_changes":[3.712615E2,5.765399E1,1.2065402E2,1.078125E1,4.180816E1,6.9880516E1,2.7157837E1,0E0,0E0,0E0,0E0,0E0,0E0,0E0,0E0],"parents":[2147483647,0,0,1,1,2,2,3,3,4,4,5,5,6,6],"right_children":[2,4,6,8,10,12,14,-1,-1,-1,-1,-1,-1,-1,-1],"split_conditions":[1.8333334E0,2.6666668E-1,5.0333333E0,1.6833333E0,6E-1,1.4833333E0,9.866667E0,-1.6171385E-2,-1.0726263E-2,-1.36182085E-2,-3.4534575E-3,-4.2977096E-3,7.753289E-3,4.7695328E-2,1.6156268E-1],"split_indices":[0,0,0,3,4,6,0,0,0,0,0,0,0,0,0],"split_type":[0,0,0,0,0,0,0,0,0,0,0,0,0,0,0],"sum_hessian":[1.0233E4,4.82E3,5.413E3,7.26E2,4.094E3,4.457E3,9.56E2,5.18E2,2.08E2,1.004E3,3.09E3,1.131E3,3.326E3,7.17E2,2.39E2],"tree_param":{"num_deleted":"0","num_feature":"9","num_nodes":"15","size_leaf_vector":"1"}},{"base_weights":[1.8077E-2,-1.0955744E-1,2.865373E-1,-2.4700493E-1,-1.4390244E-2,2.2931035E-1,7.017544E-1,-2.3401827E-2,-1.03290295E-2,-4.2755343E-3,8.362219E-3,5.727377E-4,1.6148916E-2,2.8451884E-2,4.4720497E-2],"categories":[],"categories_nodes":[],"categories_segments":[],"categories_sizes":[],"default_left":[0,0,0,0,0,0,0,0,0,0,0,0,0,0,0],"id":40,"left_children":[1,3,5,7,9,11,13,-1,-1,-1,-1,-1,-1,-1,-1],"loss_changes":[3.5069714E2,9.0735825E1,7.8204865E1,2.5261017E1,5.2977833E1,5.9173965E1,9.692917E0,0E0,0E0,0E0,0E0,0E0,0E0,0E0,0E0],"parents":[2147483647,0,0,1,1,2,2,3,3,4,4,5,5,6,6],"right_children":[2,4,6,8,10,12,14,-1,-1,-1,-1,-1,-1,-1,-1],"split_conditions":[2.9E0,1.1666666E0,8.033334E0,2.6E-1,8.660254E-1,2.15E0,1.1433333E1,-1.4006567E-2,-9.165523E-3,-4.0697916E-3,6.093073E-3,6.5231323E-4,1.29152415E-2,8.541143E-2,1.8156789E-1],"split_indices":[0,4,0,0,7,3,0,0,0,0,0,0,0,0,0],"split_type":[0,0,0,0,0,0,0,0,0,0,0,0,0,0,0],"sum_hessian":[1.0233E4,6.936E3,3.297E3,2.837E3,4.099E3,2.899E3,3.98E2,4.37E2,2.4E3,2.946E3,1.153E3,8.72E2,2.027E3,2.38E2,1.6E2],"tree_param":{"num_deleted":"0","num_feature":"9","num_nodes":"15","size_leaf_vector":"1"}},{"base_weights":[1.6318155E-2,-8.165877E-2,3.3236995E-1,-2.002522E-1,4.0530007E-2,2.6136363E-1,6.917293E-1,-2.1182945E-2,-7.502315E-3,-5.571294E-3,4.908635E-3,7.377049E-4,1.8374559E-2,2.7615061E-2,4.4720497E-2],"categories":[],"categories_nodes":[],"categories_segments":[],"categories_sizes":[],"default_left":[0,0,0,0,0,0,0,0,0,0,0,0,0,0,0],"id":41,"left_children":[1,3,5,7,9,11,13,-1,-1,-1,-1,-1,-1,-1,-1],"loss_changes":[3.1693097E2,1.1322464E2,6.162085E1,4.4409195E1,3.372489E1,5.2966827E1,1.0781494E1,0E0,0E0,0E0,0E0,0E0,0E0,0E0,0E0],"parents":[2147483647,0,0,1,1,2,2,3,3,4,4,5,5,6,6],"right_children":[2,4,6,8,10,12,14,-1,-1,-1,-1,-1,-1,-1,-1],"split_conditions":[3.4166667E0,1.45E0,8.033334E0,2.6666668E-1,1.2666667E0,-2.5881904E-1,1.1433333E1,-1.3143125E-2,-6.1545162E-3,-5.261961E-3,4.1614026E-3,1.2201428E-3,1.5844947E-2,8.114085E-2,1.7248948E-1],"split_indices":[0,0,0,0,6,7,0,0,0,0,0,0,0,0,0],"split_type":[0,0,0,0,0,0,0,0,0,0,0,0,0,0,0],"sum_hessian":[1.0233E4,7.812E3,2.421E3,3.964E3,3.848E3,2.023E3,3.98E2,7.26E2,3.238E3,1.058E3,2.79E3,6.09E2,1.414E3,2.38E2,1.6E2],"tree_param":{"num_deleted":"0","num_feature":"9","num_nodes":"15","size_leaf_vector":"1"}},{"base_weights":[1.2409615E-2,-7.096228E-2,3.63729E-1,-1.8944325E-1,4.825412E-2,3.096994E-1,8.358209E-1,-2.0357635E-2,-7.1574645E-3,-8.874689E-4,9.518349E-3,4.9069375E-3,2.0801364E-2,-2.5E-2,4.2250004E-2],"categories":[],"categories_nodes":[],"categories_segments":[],"categories_sizes":[],"default_left":[0,0,0,0,0,0,0,0,0,0,0,0,0,0,0],"id":42,"left_children":[1,3,5,7,9,11,13,-1,-1,-1,-1,-1,-1,-1,-1],"loss_changes":[2.9978134E2,1.168501E2,4.981128E1,4.175795E1,3.8686275E1,3.9617508E1,2.887085E0,0E0,0E0,0E0,0E0,0E0,0E0,0E0,0E0],"parents":[2147483647,0,0,1,1,2,2,3,3,4,4,5,5,6,6],"right_children":[2,4,6,8,10,12,14,-1,-1,-1,-1,-1,-1,-1,-1],"split_conditions":[3.7166667E0,1.5333333E0,1.0583333E1,2.6666668E-1,7.0710677E-1,-2.5881904E-1,2.58E0,-1.2485969E-2,-5.760436E-3,-4.1755437E-4,7.547319E-3,9.498233E-3,2.2350198E-2,-3.9218333E-2,1.4844838E-1],"split_indices":[0,0,0,0,7,7,1,0,0,0,0,0,0,0,0],"split_type":[0,0,0,0,0,0,0,0,0,0,0,0,0,0,0],"sum_hessian":[1.0233E4,8.271E3,1.962E3,4.148E3,4.123E3,1.762E3,2E2,7.26E2,3.422E3,2.816E3,1.307E3,5.9E2,1.172E3,1E0,1.99E2],"tree_param":{"num_deleted":"0","num_feature":"9","num_nodes":"15","size_leaf_vector":"1"}},{"base_weights":[1.1041626E-2,-6.951161E-2,3.5048395E-1,-1.8317667E-1,4.485936E-2,2.949518E-1,8.358209E-1,-2.0082531E-2,-6.836109E-3,-8.5197017E-4,8.906729E-3,4.7377325E-3,1.9778347E-2,-2.5E-2,4.2250004E-2],"categories":[],"categories_nodes":[],"categories_segments":[],"categories_sizes":[],"default_left":[0,0,0,0,0,0,0,0,0,0,0,0,0,0,0],"id":43,"left_children":[1,3,5,7,9,11,13,-1,-1,-1,-1,-1,-1,-1,-1],"loss_changes":[2.7985443E2,1.0754407E2,5.265988E1,4.2053696E1,3.402426E1,3.547438E1,2.887085E0,0E0,0E0,0E0,0E0,0E0,0E0,0E0,0E0],"parents":[2147483647,0,0,1,1,2,2,3,3,4,4,5,5,6,6],"right_children":[2,4,6,8,10,12,14,-1,-1,-1,-1,-1,-1,-1,-1],"split_conditions":[3.7166667E0,1.5333333E0,1.0583333E1,2.6666668E-1,7.0710677E-1,-2.5881904E-1,2.58E0,-1.186167E-2,-5.472414E-3,-3.9668084E-4,7.1699503E-3,9.023326E-3,2.1232683E-2,-3.7257433E-2,1.4102598E-1],"split_indices":[0,0,0,0,7,7,1,0,0,0,0,0,0,0,0],"split_type":[0,0,0,0,0,0,0,0,0,0,0,0,0,0,0],"sum_hessian":[1.0233E4,8.271E3,1.962E3,4.148E3,4.123E3,1.762E3,2E2,7.26E2,3.422E3,2.816E3,1.307E3,5.9E2,1.172E3,1E0,1.99E2],"tree_param":{"num_deleted":"0","num_feature":"9","num_nodes":"15","size_leaf_vector":"1"}},{"base_weights":[1.1237053E-2,-6.6368476E-2,3.3825776E-1,-1.8113959E-1,4.2078044E-2,2.543131E-1,6.666667E-1,-2.3084292E-2,-6.9611208E-3,5.8562993E-3,-7.3736534E-3,1.0912699E-3,1.822034E-2,2.5941422E-2,4.409938E-2],"categories":[],"categories_nodes":[],"categories_segments":[],"categories_sizes":[],"default_left":[0,0,0,0,0,0,0,0,0,0,0,0,0,0,0],"id":44,"left_children":[1,3,5,7,9,11,13,-1,-1,-1,-1,-1,-1,-1,-1],"loss_changes":[2.597472E2,1.0296529E2,5.3946762E1,4.7197983E1,6.0532215E1,4.004889E1,1.2243637E1,0E0,0E0,0E0,0E0,0E0,0E0,0E0,0E0],"parents":[2147483647,0,0,1,1,2,2,3,3,4,4,5,5,6,6],"right_children":[2,4,6,8,10,12,14,-1,-1,-1,-1,-1,-1,-1,-1],"split_conditions":[3.7166667E0,1.7E0,8.033334E0,2.6666668E-1,5E-1,-2.5881904E-1,1.1433333E1,-1.2743144E-2,-6.1540245E-3,5.4899934E-3,-6.1354847E-3,6.904602E-4,1.7670704E-2,7.347868E-2,1.4939134E-1],"split_indices":[0,3,0,0,8,7,0,0,0,0,0,0,0,0,0],"split_type":[0,0,0,0,0,0,0,0,0,0,0,0,0,0,0],"sum_hessian":[1.0233E4,8.271E3,1.962E3,4.018E3,4.253E3,1.564E3,3.98E2,5.21E2,3.497E3,3.047E3,1.206E3,5.03E2,1.061E3,2.38E2,1.6E2],"tree_param":{"num_deleted":"0","num_feature":"9","num_nodes":"15","size_leaf_vector":"1"}},{"base_weights":[1.338675E-2,-6.0565762E-2,3.2501274E-1,-1.629681E-1,5.1684823E-2,2.639211E-1,7.625E-1,-2.2879178E-2,-6.6912137E-3,-5.740741E-4,9.415064E-3,3.385417E-3,1.8102698E-2,2.8125001E-2,4.2857144E-2],"categories":[],"categories_nodes":[],"categories_segments":[],"categories_sizes":[],"default_left":[0,0,0,0,0,0,0,0,0,0,0,0,0,0,0],"id":45,"left_children":[1,3,5,7,9,11,13,-1,-1,-1,-1,-1,-1,-1,-1],"loss_changes":[2.3586758E2,9.509276E1,5.226349E1,3.7082756E1,3.4063023E1,3.317096E1,4.0606995E0,0E0,0E0,0E0,0E0,0E0,0E0,0E0,0E0],"parents":[2147483647,0,0,1,1,2,2,3,3,4,4,5,5,6,6],"right_children":[2,4,6,8,10,12,14,-1,-1,-1,-1,-1,-1,-1,-1],"split_conditions":[3.7166667E0,1.6166667E0,9.866667E0,1.3333334E-1,7.0710677E-1,-2.5881904E-1,1.1433333E1,-1.3755034E-2,-5.2014976E-3,-5.3863524E-4,7.206774E-3,6.188369E-3,1.8893922E-2,7.3919155E-2,1.4192179E-1],"split_indices":[0,0,0,0,7,7,0,0,0,0,0,0,0,0,0],"split_type":[0,0,0,0,0,0,0,0,0,0,0,0,0,0,0],"sum_hessian":[1.0233E4,8.271E3,1.962E3,4.325E3,3.946E3,1.723E3,2.39E2,3.88E2,3.937E3,2.699E3,1.247E3,5.75E2,1.148E3,7.9E1,1.6E2],"tree_param":{"num_deleted":"0","num_feature":"9","num_nodes":"15","size_leaf_vector":"1"}},{"base_weights":[1.4363885E-2,-9.076199E-2,2.2228688E-1,-2.1913835E-1,-2.0068415E-2,1.7441487E-1,6.896552E-1,-1.5799433E-2,-7.179676E-3,-4.0893364E-3,7.1251034E-3,3.573487E-3,1.5162455E-2,2.5786165E-2,4.2857144E-2],"categories":[],"categories_nodes":[],"categories_segments":[],"categories_sizes":[],"default_left":[0,0,0,0,0,0,0,0,0,0,0,0,0,0,0],"id":46,"left_children":[1,3,5,7,9,11,13,-1,-1,-1,-1,-1,-1,-1,-1],"loss_changes":[2.2371584E2,6.1690067E1,7.6778656E1,1.7616745E1,4.4008884E1,4.1345177E1,8.850876E0,0E0,0E0,0E0,0E0,0E0,0E0,0E0,0E0],"parents":[2147483647,0,0,1,1,2,2,3,3,4,4,5,5,6,6],"right_children":[2,4,6,8,10,12,14,-1,-1,-1,-1,-1,-1,-1,-1],"split_conditions":[2.8166666E0,9.8333335E-1,8.85E0,8E-1,8.660254E-1,3.2333333E0,1.1433333E1,-1.0602355E-2,-6.9666863E-3,-3.5089448E-3,5.612409E-3,4.046613E-3,1.1301005E-2,7.037026E-2,1.3482569E-1],"split_indices":[0,4,0,1,7,3,0,0,0,0,0,0,0,0,0],"split_type":[0,0,0,0,0,0,0,0,0,0,0,0,0,0,0],"sum_hessian":[1.0233E4,6.797E3,3.436E3,2.413E3,4.384E3,3.118E3,3.18E2,1.056E3,1.357E3,3.178E3,1.206E3,1.734E3,1.384E3,1.58E2,1.6E2],"tree_param":{"num_deleted":"0","num_feature":"9","num_nodes":"15","size_leaf_vector":"1"}},{"base_weights":[1.1237053E-2,-5.838975E-2,3.0463576E-1,-1.607365E-1,3.831688E-2,2.4303944E-1,7.4583334E-1,-2.1138996E-2,-6.0965163E-3,5.2985563E-3,-6.628003E-3,2.34375E-3,1.7058311E-2,2.9583333E-2,4.46281E-2],"categories":[],"categories_nodes":[],"categories_segments":[],"categories_sizes":[],"default_left":[0,0,0,0,0,0,0,0,0,0,0,0,0,0,0],"id":47,"left_children":[1,3,5,7,9,11,13,-1,-1,-1,-1,-1,-1,-1,-1],"loss_changes":[2.0908215E2,8.187918E1,5.3165512E1,4.081727E1,4.9192635E1,3.3169266E1,4.9008636E0,0E0,0E0,0E0,0E0,0E0,0E0,0E0,0E0],"parents":[2147483647,0,0,1,1,2,2,3,3,4,4,5,5,6,6],"right_children":[2,4,6,8,10,12,14,-1,-1,-1,-1,-1,-1,-1,-1],"split_conditions":[3.7166667E0,1.7E0,9.866667E0,2.6E-1,5E-1,-2.5881904E-1,1.2083333E1,-1.1519544E-2,-5.377752E-3,4.8578023E-3,-5.5454285E-3,5.6766155E-3,1.7384171E-2,7.3935986E-2,1.5193336E-1],"split_indices":[0,3,0,0,8,7,0,0,0,0,0,0,0,0,0],"split_type":[0,0,0,0,0,0,0,0,0,0,0,0,0,0,0],"sum_hessian":[1.0233E4,8.271E3,1.962E3,4.018E3,4.253E3,1.723E3,2.39E2,5.17E2,3.501E3,3.047E3,1.206E3,5.75E2,1.148E3,1.19E2,1.2E2],"tree_param":{"num_deleted":"0","num_feature":"9","num_nodes":"15","size_leaf_vector":"1"}},{"base_weights":[1.1237053E-2,-4.009329E-2,3.866775E-1,-1.5192907E-1,5.6498345E-2,3.1932774E-1,8.3229816E-1,-2.0945946E-2,-5.7029543E-3,-7.6076076E-3,5.5425144E-3,3.787879E-4,1.8138299E-2,-1.25E-2,4.272152E-2],"categories":[],"categories_nodes":[],"categories_segments":[],"categories_sizes":[],"default_left":[0,0,0,0,0,0,0,0,0,0,0,0,0,0,0],"id":48,"left_children":[1,3,5,7,9,11,13,-1,-1,-1,-1,-1,-1,-1,-1],"loss_changes":[1.972399E2,9.72734E1,3.667955E1,4.214502E1,5.4814445E1,1.4500687E1,4.0701447E0,0E0,0E0,0E0,0E0,0E0,0E0,0E0,0E0],"parents":[2147483647,0,0,1,1,2,2,3,3,4,4,5,5,6,6],"right_children":[2,4,6,8,10,12,14,-1,-1,-1,-1,-1,-1,-1,-1],"split_conditions":[4.46E0,1.7E0,1.1433333E1,2.6E-1,1.2333333E0,-8.660254E-1,5E-2,-1.0943566E-2,-5.1349164E-3,-7.3869093E-3,4.7911704E-3,4.9627065E-3,3.0621815E-2,-2.2180129E-2,1.2313876E-1],"split_indices":[0,3,0,0,6,7,6,0,0,0,0,0,0,0,0],"split_type":[0,0,0,0,0,0,0,0,0,0,0,0,0,0,0],"sum_hessian":[1.0233E4,9.003E3,1.23E3,4.172E3,4.831E3,1.07E3,1.6E2,5.17E2,3.655E3,9.98E2,3.833E3,1.31E2,9.39E2,3E0,1.57E2],"tree_param":{"num_deleted":"0","num_feature":"9","num_nodes":"15","size_leaf_vector":"1"}},{"base_weights":[1.3777604E-2,-2.9640008E-2,4.3469176E-1,-1.375286E-1,6.6408634E-2,3.5382685E-1,8.3229816E-1,-2.3219815E-2,-5.5706524E-3,-5.906481E-3,6.3668387E-3,4.6296298E-4,2.036232E-2,-1.25E-2,4.272152E-2],"categories":[],"categories_nodes":[],"categories_segments":[],"categories_sizes":[],"default_left":[0,0,0,0,0,0,0,0,0,0,0,0,0,0,0],"id":49,"left_children":[1,3,5,7,9,11,13,-1,-1,-1,-1,-1,-1,-1,-1],"loss_changes":[1.8704013E2,9.615291E1,3.0475357E1,3.725203E1,5.5209724E1,1.4666321E1,4.0701447E0,0E0,0E0,0E0,0E0,0E0,0E0,0E0,0E0],"parents":[2147483647,0,0,1,1,2,2,3,3,4,4,5,5,6,6],"right_children":[2,4,6,8,10,12,14,-1,-1,-1,-1,-1,-1,-1,-1],"split_conditions":[5.0333333E0,1.7666667E0,1.1433333E1,1.5E-1,1.4833333E0,-8.660254E-1,5E-2,-1.1608672E-2,-5.034399E-3,-5.494301E-3,5.1482916E-3,4.7145607E-3,4.0119696E-2,-2.10711E-2,1.1698184E-1],"split_indices":[0,3,0,0,6,7,6,0,0,0,0,0,0,0,0],"split_type":[0,0,0,0,0,0,0,0,0,0,0,0,0,0,0],"sum_hessian":[1.0233E4,9.277E3,9.56E2,4.369E3,4.908E3,7.96E2,1.6E2,3.22E2,4.047E3,1.218E3,3.69E3,1.07E2,6.89E2,3E0,1.57E2],"tree_param":{"num_deleted":"0","num_feature":"9","num_nodes":"15","size_leaf_vector":"1"}},{"base_weights":[1.3973031E-2,-9.856016E-2,1.6314474E-1,-4.2159384E-1,-7.5468235E-2,1.1991007E-1,5.964912E-1,-2.4738675E-2,-1.0679612E-2,-1.0418007E-2,-1.1176773E-3,2.1747728E-3,1.25423735E-2,2.2594143E-2,4.037267E-2],"categories":[],"categories_nodes":[],"categories_segments":[],"categories_sizes":[],"default_left":[0,0,0,0,0,0,0,0,0,0,0,0,0,0,0],"id":50,"left_children":[1,3,5,7,9,11,13,-1,-1,-1,-1,-1,-1,-1,-1],"loss_changes":[1.7181189E2,4.3486732E1,8.2383804E1,5.815483E0,3.8435993E1,4.004123E1,1.1807388E1,0E0,0E0,0E0,0E0,0E0,0E0,0E0,0E0],"parents":[2147483647,0,0,1,1,2,2,3,3,4,4,5,5,6,6],"right_children":[2,4,6,8,10,12,14,-1,-1,-1,-1,-1,-1,-1,-1],"split_conditions":[2.3333333E0,1.3333334E-1,8.033334E0,8.660254E-1,7.3333335E-1,3.3833334E0,1.1433333E1,-1.2289987E-2,-6.710913E-3,-8.630919E-3,-9.4850064E-4,1.8199682E-3,9.4251335E-3,5.958822E-2,1.1076558E-1],"split_indices":[0,0,0,7,4,3,0,0,0,0,0,0,0,0,0],"split_type":[0,0,0,0,0,0,0,0,0,0,0,0,0,0,0],"sum_hessian":[1.0233E4,5.833E3,4.4E3,3.88E2,5.445E3,4.002E3,3.98E2,2.86E2,1.02E2,1.554E3,3.891E3,2.528E3,1.474E3,2.38E2,1.6E2],"tree_param":{"num_deleted":"0","num_feature":"9","num_nodes":"15","size_leaf_vector":"1"}},{"base_weights":[1.4363885E-2,-2.5975427E-2,4.0543365E-1,-1.2829404E-1,6.3395925E-2,3.3124214E-1,7.7018636E-1,-1.9794345E-2,-5.091417E-3,-3.1332453E-4,8.6628515E-3,4.6296298E-4,1.9057972E-2,4.0522877E-2,-0E0],"categories":[],"categories_nodes":[],"categories_segments":[],"categories_sizes":[],"default_left":[0,0,0,0,0,0,0,0,0,0,0,0,0,0,0],"id":51,"left_children":[1,3,5,7,9,11,13,-1,-1,-1,-1,-1,-1,-1,-1],"loss_changes":[1.6145683E2,8.4849434E1,2.5642776E1,3.059655E1,3.7907333E1,1.2806259E1,4.9936295E0,0E0,0E0,0E0,0E0,0E0,0E0,0E0,0E0],"parents":[2147483647,0,0,1,1,2,2,3,3,4,4,5,5,6,6],"right_children":[2,4,6,8,10,12,14,-1,-1,-1,-1,-1,-1,-1,-1],"split_conditions":[5.0333333E0,1.6166667E0,1.1433333E1,1.3333334E-1,5E-1,-8.660254E-1,1E0,-1.0611571E-2,-4.0996047E-3,-3.4365655E-4,6.219912E-3,4.387832E-3,3.7976768E-2,1.0522731E-1,6.277678E-2],"split_indices":[0,0,0,0,7,7,7,0,0,0,0,0,0,0,0],"split_type":[0,0,0,0,0,0,0,0,0,0,0,0,0,0,0],"sum_hessian":[1.0233E4,9.277E3,9.56E2,4.325E3,4.952E3,7.96E2,1.6E2,3.88E2,3.937E3,3.031E3,1.921E3,1.07E2,6.89E2,1.52E2,8E0],"tree_param":{"num_deleted":"0","num_feature":"9","num_nodes":"15","size_leaf_vector":"1"}},{"base_weights":[1.4168458E-2,-4.1538462E-2,2.7787116E-1,-1.8244337E-1,1.6725205E-2,2.0722564E-1,6.0188085E-1,-1.5929705E-2,-5.342552E-3,-2.3828435E-3,6.3549704E-3,1.2320329E-3,1.4882773E-2,2.5420168E-2,4.3292683E-2],"categories":[],"categories_nodes":[],"categories_segments":[],"categories_sizes":[],"default_left":[0,0,0,0,0,0,0,0,0,0,0,0,0,0,0],"id":52,"left_children":[1,3,5,7,9,11,13,-1,-1,-1,-1,-1,-1,-1,-1],"loss_changes":[1.5034967E2,6.937448E1,4.0733627E1,2.5407661E1,4.249355E1,2.4214481E1,7.4312897E0,0E0,0E0,0E0,0E0,0E0,0E0,0E0,0E0],"parents":[2147483647,0,0,1,1,2,2,3,3,4,4,5,5,6,6],"right_children":[2,4,6,8,10,12,14,-1,-1,-1,-1,-1,-1,-1,-1],"split_conditions":[3.84E0,9.5E-1,8.85E0,7.1666664E-1,7.0710677E-1,-2.5881904E-1,1.304E1,-9.060929E-3,-5.3310557E-3,-1.9526229E-3,5.1347497E-3,3.3872128E-3,1.4697552E-2,5.4585457E-2,1.9111438E-1],"split_indices":[0,3,0,1,7,7,0,0,0,0,0,0,0,0,0],"split_type":[0,0,0,0,0,0,0,0,0,0,0,0,0,0,0],"sum_hessian":[1.0233E4,8.449E3,1.784E3,2.471E3,5.978E3,1.466E3,3.18E2,8.81E2,1.59E3,3.776E3,2.202E3,4.86E2,9.8E2,2.37E2,8.1E1],"tree_param":{"num_deleted":"0","num_feature":"9","num_nodes":"15","size_leaf_vector":"1"}},{"base_weights":[1.2800469E-2,-2.446648E-2,3.740857E-1,-1.5480769E-1,4.156519E-2,2.7230048E-1,5.768025E-1,-1.9277109E-2,-5.9682187E-3,-4.7317813E-3,5.293977E-3,2.0991255E-2,5.050505E-3,2.5719425E-2,4.8809525E-2],"categories":[],"categories_nodes":[],"categories_segments":[],"categories_sizes":[],"default_left":[0,0,0,0,0,0,0,0,0,0,0,0,0,0,0],"id":53,"left_children":[1,3,5,7,9,11,13,-1,-1,-1,-1,-1,-1,-1,-1],"loss_changes":[1.377997E2,7.985891E1,1.958928E1,2.5469322E1,5.396081E1,1.6104832E1,7.449707E0,0E0,0E0,0E0,0E0,0E0,0E0,0E0,0E0],"parents":[2147483647,0,0,1,1,2,2,3,3,4,4,5,5,6,6],"right_children":[2,4,6,8,10,12,14,-1,-1,-1,-1,-1,-1,-1,-1],"split_conditions":[5.0333333E0,1.2E0,8.85E0,2.6E-1,-2.5881904E-1,-2.5881904E-1,1.49E1,-9.604545E-3,-5.903131E-3,-3.752774E-3,3.947711E-3,3.510462E-2,1.3824964E-2,5.9094574E-2,2.042253E-1],"split_indices":[0,6,0,0,7,8,0,0,0,0,0,0,0,0,0],"split_type":[0,0,0,0,0,0,0,0,0,0,0,0,0,0,0],"sum_hessian":[1.0233E4,9.277E3,9.56E2,3.119E3,6.158E3,6.38E2,3.18E2,4.14E2,2.705E3,1.975E3,4.183E3,3.42E2,2.96E2,2.77E2,4.1E1],"tree_param":{"num_deleted":"0","num_feature":"9","num_nodes":"15","size_leaf_vector":"1"}},{"base_weights":[1.4950166E-2,-2.1233024E-2,3.6572623E-1,-1.396631E-1,4.3066178E-2,2.6291078E-1,5.705329E-1,-1.353875E-2,-3.7813212E-3,5.4856837E-3,-3.3143107E-3,1.4149444E-2,-4.5454547E-2,2.535971E-2,4.8809525E-2],"categories":[],"categories_nodes":[],"categories_segments":[],"categories_sizes":[],"default_left":[0,0,0,0,0,0,0,0,0,0,0,0,0,0,0],"id":54,"left_children":[1,3,5,7,9,11,13,-1,-1,-1,-1,-1,-1,-1,-1],"loss_changes":[1.2989972E2,7.065761E1,2.0001831E1,2.7392357E1,4.383768E1,1.5293915E1,7.70121E0,0E0,0E0,0E0,0E0,0E0,0E0,0E0,0E0],"parents":[2147483647,0,0,1,1,2,2,3,3,4,4,5,5,6,6],"right_children":[2,4,6,8,10,12,14,-1,-1,-1,-1,-1,-1,-1,-1],"split_conditions":[5.0333333E0,1.2333333E0,8.85E0,7.1666664E-1,2.5881904E-1,1.0583333E1,1.49E1,-8.466902E-3,-3.5610243E-3,4.6430468E-3,-2.7905197E-3,2.7971018E-2,-5.0456036E-2,5.6139853E-2,1.9401403E-1],"split_indices":[0,3,0,1,8,3,0,0,0,0,0,0,0,0,0],"split_type":[0,0,0,0,0,0,0,0,0,0,0,0,0,0,0],"sum_hessian":[1.0233E4,9.277E3,9.56E2,3.264E3,6.013E3,6.38E2,3.18E2,1.07E3,2.194E3,3.736E3,2.277E3,6.28E2,1E1,2.77E2,4.1E1],"tree_param":{"num_deleted":"0","num_feature":"9","num_nodes":"15","size_leaf_vector":"1"}},{"base_weights":[1.5145593E-2,-1.7055085E-2,3.9748427E-1,-1.3365014E-1,4.7579847E-2,3.2440946E-1,6.832298E-1,-1.2431192E-2,-3.928885E-3,3.6950675E-3,-1.23000005E-2,5.434783E-4,1.8841913E-2,2.875E-2,4.8809525E-2],"categories":[],"categories_nodes":[],"categories_segments":[],"categories_sizes":[],"default_left":[0,0,0,0,0,0,0,0,0,0,0,0,0,0,0],"id":55,"left_children":[1,3,5,7,9,11,13,-1,-1,-1,-1,-1,-1,-1,-1],"loss_changes":[1.2600334E2,7.114726E1,1.6378593E1,2.1299915E1,4.6954777E1,1.0434364E1,4.5435257E0,0E0,0E0,0E0,0E0,0E0,0E0,0E0,0E0],"parents":[2147483647,0,0,1,1,2,2,3,3,4,4,5,5,6,6],"right_children":[2,4,6,8,10,12,14,-1,-1,-1,-1,-1,-1,-1,-1],"split_conditions":[5.56E0,1.2666667E0,1.1433333E1,7.1666664E-1,6.233333E0,-8.660254E-1,1.49E1,-7.843739E-3,-3.4888298E-3,2.8283359E-3,-9.588945E-3,2.6310445E-3,3.838997E-2,6.0956717E-2,1.8431334E-1],"split_indices":[0,3,0,1,5,7,0,0,0,0,0,0,0,0,0],"split_type":[0,0,0,0,0,0,0,0,0,0,0,0,0,0,0],"sum_hessian":[1.0233E4,9.439E3,7.94E2,3.366E3,6.073E3,6.34E2,1.6E2,1.089E3,2.277E3,5.574E3,4.99E2,9.1E1,5.43E2,1.19E2,4.1E1],"tree_param":{"num_deleted":"0","num_feature":"9","num_nodes":"15","size_leaf_vector":"1"}},{"base_weights":[1.4363885E-2,-9.749015E-2,1.139638E-1,-3.3419022E-1,-7.66975E-2,7.239342E-2,4.0472674E-1,-2.0557491E-2,-5.825243E-3,-9.842193E-3,-1.5944273E-3,-3.4305318E-5,9.457237E-3,1.831761E-2,4.8809525E-2],"categories":[],"categories_nodes":[],"categories_segments":[],"categories_sizes":[],"default_left":[0,0,0,0,0,0,0,0,0,0,0,0,0,0,0],"id":56,"left_children":[1,3,5,7,9,11,13,-1,-1,-1,-1,-1,-1,-1,-1],"loss_changes":[1.1402454E2,2.3701511E1,6.541041E1,6.4690094E0,2.3859364E1,4.042537E1,1.4488747E1,0E0,0E0,0E0,0E0,0E0,0E0,0E0,0E0],"parents":[2147483647,0,0,1,1,2,2,3,3,4,4,5,5,6,6],"right_children":[2,4,6,8,10,12,14,-1,-1,-1,-1,-1,-1,-1,-1],"split_conditions":[1.8333334E0,1.3333334E-1,6.0666666E0,8.660254E-1,6.333333E-1,5E-1,1.49E1,-9.5946975E-3,-5.063263E-3,-7.7678175E-3,-1.2701154E-3,-2.849102E-6,6.3682795E-3,4.0767934E-2,1.7509766E-1],"split_indices":[0,0,0,7,4,7,0,0,0,0,0,0,0,0,0],"split_type":[0,0,0,0,0,0,0,0,0,0,0,0,0,0,0],"sum_hessian":[1.0233E4,4.82E3,5.413E3,3.88E2,4.432E3,4.737E3,6.76E2,2.86E2,1.02E2,1.203E3,3.229E3,2.914E3,1.823E3,6.35E2,4.1E1],"tree_param":{"num_deleted":"0","num_feature":"9","num_nodes":"15","size_leaf_vector":"1"}},{"base_weights":[1.2605042E-2,-3.468208E-2,2.4061434E-1,-1.534326E-1,1.270627E-2,1.7291667E-1,5.4545456E-1,-2.088889E-2,-6.3126707E-3,-2.2005208E-3,5.538046E-3,2.0790022E-4,1.2864584E-2,2.3920864E-2,4.8809525E-2],"categories":[],"categories_nodes":[],"categories_segments":[],"categories_sizes":[],"default_left":[0,0,0,0,0,0,0,0,0,0,0,0,0,0,0],"id":57,"left_children":[1,3,5,7,9,11,13,-1,-1,-1,-1,-1,-1,-1,-1],"loss_changes":[1.1035034E2,4.7705338E1,3.618547E1,1.731982E1,3.3706566E1,2.0503105E1,8.744217E0,0E0,0E0,0E0,0E0,0E0,0E0,0E0,0E0],"parents":[2147483647,0,0,1,1,2,2,3,3,4,4,5,5,6,6],"right_children":[2,4,6,8,10,12,14,-1,-1,-1,-1,-1,-1,-1,-1],"split_conditions":[3.8666666E0,9.3333334E-1,8.85E0,1.6666667E-1,7.0710677E-1,-2.5881904E-1,1.49E1,-9.114962E-3,-5.3381207E-3,-1.769805E-3,4.2508217E-3,4.2107105E-4,1.2599707E-2,4.866419E-2,1.6634278E-1],"split_indices":[0,3,0,0,7,7,0,0,0,0,0,0,0,0,0],"split_type":[0,0,0,0,0,0,0,0,0,0,0,0,0,0,0],"sum_hessian":[1.0233E4,8.476E3,1.757E3,2.417E3,6.059E3,1.439E3,3.18E2,2.24E2,2.193E3,3.839E3,2.22E3,4.8E2,9.59E2,2.77E2,4.1E1],"tree_param":{"num_deleted":"0","num_feature":"9","num_nodes":"15","size_leaf_vector":"1"}},{"base_weights":[1.338675E-2,-1.9077387E-2,3.2810867E-1,-1.2852564E-1,3.636954E-2,2.8424656E-1,7.9268295E-1,-2.1067416E-2,-5.538566E-3,-7.494759E-3,3.524779E-3,1.5809285E-2,-1.8750001E-3,1.9444445E-2,4.4615384E-2],"categories":[],"categories_nodes":[],"categories_segments":[],"categories_sizes":[],"default_left":[0,0,0,0,0,0,0,0,0,0,0,0,0,0,0],"id":58,"left_children":[1,3,5,7,9,11,13,-1,-1,-1,-1,-1,-1,-1,-1],"loss_changes":[1.0456883E2,5.630886E1,1.9275665E1,1.617379E1,3.916011E1,9.013901E0,2.9516754E0,0E0,0E0,0E0,0E0,0E0,0E0,0E0,0E0],"parents":[2147483647,0,0,1,1,2,2,3,3,4,4,5,5,6,6],"right_children":[2,4,6,8,10,12,14,-1,-1,-1,-1,-1,-1,-1,-1],"split_conditions":[5.0333333E0,1.2E0,1.304E1,1E-1,8.666667E-1,9.659258E-1,1.304E1,-1.2017972E-2,-5.1079453E-3,-5.718319E-3,2.898562E-3,3.0964995E-2,-5.246186E-3,9.911084E-2,1.559267E-1],"split_indices":[0,6,0,0,4,7,1,0,0,0,0,0,0,0,0],"split_type":[0,0,0,0,0,0,0,0,0,0,0,0,0,0,0],"sum_hessian":[1.0233E4,9.277E3,9.56E2,3.119E3,6.158E3,8.75E2,8.1E1,1.77E2,2.942E3,9.53E2,5.205E3,7.96E2,7.9E1,1.7E1,6.4E1],"tree_param":{"num_deleted":"0","num_feature":"9","num_nodes":"15","size_leaf_vector":"1"}},{"base_weights":[1.3191323E-2,-1.5360169E-2,3.5220125E-1,-1.2115446E-1,3.769084E-2,3.0112046E-1,7.9268295E-1,-1.994382E-2,-5.2251345E-3,-1.4390443E-3,6.580967E-3,1.6898148E-2,-2.9850747E-3,1.9444445E-2,4.4615384E-2],"categories":[],"categories_nodes":[],"categories_segments":[],"categories_sizes":[],"default_left":[0,0,0,0,0,0,0,0,0,0,0,0,0,0,0],"id":59,"left_children":[1,3,5,7,9,11,13,-1,-1,-1,-1,-1,-1,-1,-1],"loss_changes":[9.906275E1,5.2986504E1,1.7648933E1,1.4539558E1,3.926348E1,9.511795E0,2.9516754E0,0E0,0E0,0E0,0E0,0E0,0E0,0E0,0E0],"parents":[2147483647,0,0,1,1,2,2,3,3,4,4,5,5,6,6],"right_children":[2,4,6,8,10,12,14,-1,-1,-1,-1,-1,-1,-1,-1],"split_conditions":[5.56E0,1.2E0,1.304E1,1E-1,5E-1,9.659258E-1,1.304E1,-1.1417073E-2,-4.815817E-3,-1.0570408E-3,4.8070787E-3,3.4569692E-2,-1.1109459E-2,9.415531E-2,1.4813037E-1],"split_indices":[0,6,0,0,7,7,1,0,0,0,0,0,0,0,0],"split_type":[0,0,0,0,0,0,0,0,0,0,0,0,0,0,0],"sum_hessian":[1.0233E4,9.439E3,7.94E2,3.152E3,6.287E3,7.13E2,8.1E1,1.77E2,2.975E3,3.682E3,2.605E3,6.47E2,6.6E1,1.7E1,6.4E1],"tree_param":{"num_deleted":"0","num_feature":"9","num_nodes":"15","size_leaf_vector":"1"}},{"base_weights":[1.3191323E-2,-3.0199364E-2,2.2241183E-1,-1.8221258E-1,-5.637773E-4,1.5220588E-1,4.6115288E-1,-2.0689657E-2,-7.7481843E-3,-2.4397841E-3,5.0657894E-3,7.450331E-4,1.3077939E-2,1.9972067E-2,4.8809525E-2],"categories":[],"categories_nodes":[],"categories_segments":[],"categories_sizes":[],"default_left":[0,0,0,0,0,0,0,0,0,0,0,0,0,0,0],"id":60,"left_children":[1,3,5,7,9,11,13,-1,-1,-1,-1,-1,-1,-1,-1],"loss_changes":[9.291323E1,3.818879E1,2.9395721E1,8.66304E0,3.486868E1,2.0416126E1,1.2291794E1,0E0,0E0,0E0,0E0,0E0,0E0,0E0,0E0],"parents":[2147483647,0,0,1,1,2,2,3,3,4,4,5,5,6,6],"right_children":[2,4,6,8,10,12,14,-1,-1,-1,-1,-1,-1,-1,-1],"split_conditions":[3.8666666E0,5.5E-1,8.033334E0,2E-1,7.0710677E-1,0E0,1.49E1,-1.26147E-2,-6.5910714E-3,-2.0507933E-3,3.7089349E-3,1.0445238E-3,1.2388969E-2,4.0593293E-2,1.4282279E-1],"split_indices":[0,6,0,2,7,7,0,0,0,0,0,0,0,0,0],"split_type":[0,0,0,0,0,0,0,0,0,0,0,0,0,0,0],"sum_hessian":[1.0233E4,8.476E3,1.757E3,1.382E3,7.094E3,1.359E3,3.98E2,1.44E2,1.238E3,4.815E3,2.279E3,6.03E2,7.56E2,3.57E2,4.1E1],"tree_param":{"num_deleted":"0","num_feature":"9","num_nodes":"15","size_leaf_vector":"1"}},{"base_weights":[1.2995896E-2,-1.3877119E-2,3.3207548E-1,-1.066705E-1,4.0248197E-2,2.9575598E-1,4.8809525E-2,-6.739346E-3,4.09292E-3,-1.9689512E-3,5.176046E-3,1.6494846E-2,-6.5789477E-4],"categories":[],"categories_nodes":[],"categories_segments":[],"categories_sizes":[],"default_left":[0,0,0,0,0,0,0,0,0,0,0,0,0],"id":61,"left_children":[1,3,5,7,9,11,-1,-1,-1,-1,-1,-1,-1],"loss_changes":[8.775737E1,4.741642E1,1.8309471E1,1.8447067E1,3.0047045E1,7.956482E0,0E0,0E0,0E0,0E0,0E0,0E0,0E0],"parents":[2147483647,0,0,1,1,2,2,3,3,4,4,5,5],"right_children":[2,4,6,8,10,12,-1,-1,-1,-1,-1,-1,-1],"split_conditions":[5.56E0,1.2333333E0,1.49E1,9.659258E-1,2.2E0,9.659258E-1,1.3568163E-1,-4.6932385E-3,3.3171952E-3,-1.9940704E-3,4.043442E-3,3.286512E-2,-2.623558E-3],"split_indices":[0,0,0,7,6,7,0,0,0,0,0,0,0],"split_type":[0,0,0,0,0,0,0,0,0,0,0,0,0],"sum_hessian":[1.0233E4,9.439E3,7.94E2,3.477E3,5.962E3,7.53E2,4.1E1,3.026E3,4.51E2,2.64E3,3.322E3,6.78E2,7.5E1],"tree_param":{"num_deleted":"0","num_feature":"9","num_nodes":"13","size_leaf_vector":"1"}},{"base_weights":[1.0846199E-2,-2.90197E-2,2.0307167E-1,-1.5170106E-1,3.8893044E-3,1.8404193E-1,4.8809525E-2,-6.566549E-3,-2.5520835E-2,-8.50059E-3,1.4557288E-3,4.251269E-3,1.3387098E-2],"categories":[],"categories_nodes":[],"categories_segments":[],"categories_sizes":[],"default_left":[0,0,0,0,0,0,0,0,0,0,0,0,0],"id":62,"left_children":[1,3,5,7,9,11,-1,-1,-1,-1,-1,-1,-1],"loss_changes":[7.843151E1,3.4224964E1,2.5684471E1,1.3034538E1,2.9330057E1,1.4207191E1,0E0,0E0,0E0,0E0,0E0,0E0,0E0],"parents":[2147483647,0,0,1,1,2,2,3,3,4,4,5,5],"right_children":[2,4,6,8,10,12,-1,-1,-1,-1,-1,-1,-1],"split_conditions":[3.8666666E0,7E-1,1.49E1,3.5166667E0,5.5E-1,0E0,1.2889758E-1,-5.199784E-3,-2.7830223E-2,-7.5967624E-3,1.104492E-3,7.813024E-3,1.3948488E-2],"split_indices":[0,3,0,1,6,7,0,0,0,0,0,0,0],"split_type":[0,0,0,0,0,0,0,0,0,0,0,0,0],"sum_hessian":[1.0233E4,8.476E3,1.757E3,1.792E3,6.684E3,1.716E3,4.1E1,1.697E3,9.5E1,8.46E2,5.838E3,7.87E2,9.29E2],"tree_param":{"num_deleted":"0","num_feature":"9","num_nodes":"13","size_leaf_vector":"1"}},{"base_weights":[1.1237053E-2,-1.4088983E-2,3.119497E-1,-1.00920066E-1,3.655878E-2,2.745358E-1,4.8809525E-2,-2.1785714E-2,-4.3426175E-3,2.6703335E-3,-1.2652439E-2,1.5316643E-2,-6.5789477E-4],"categories":[],"categories_nodes":[],"categories_segments":[],"categories_sizes":[],"default_left":[0,0,0,0,0,0,0,0,0,0,0,0,0],"id":63,"left_children":[1,3,5,7,9,11,-1,-1,-1,-1,-1,-1,-1],"loss_changes":[7.79451E1,4.151892E1,1.9489197E1,1.6342812E1,2.9108643E1,6.901478E0,0E0,0E0,0E0,0E0,0E0,0E0,0E0],"parents":[2147483647,0,0,1,1,2,2,3,3,4,4,5,5],"right_children":[2,4,6,8,10,12,-1,-1,-1,-1,-1,-1,-1],"split_conditions":[5.56E0,1.2333333E0,1.49E1,3.3333335E-2,6.233333E0,9.659258E-1,1.2245269E-1,-1.2589279E-2,-3.0073635E-3,2.233243E-3,-9.446836E-3,3.0677795E-2,-3.1898022E-3],"split_indices":[0,0,0,0,5,7,0,0,0,0,0,0,0],"split_type":[0,0,0,0,0,0,0,0,0,0,0,0,0],"sum_hessian":[1.0233E4,9.439E3,7.94E2,3.477E3,5.962E3,7.53E2,4.1E1,1.39E2,3.338E3,5.635E3,3.27E2,6.78E2,7.5E1],"tree_param":{"num_deleted":"0","num_feature":"9","num_nodes":"13","size_leaf_vector":"1"}},{"base_weights":[1.143248E-2,-1.3241526E-2,3.0440253E-1,-1.04662225E-1,3.260178E-2,2.6657826E-1,4.8809525E-2,-1.7134832E-2,-4.5194896E-3,-1.809261E-3,5.3335535E-3,1.4874816E-2,-6.5789477E-4],"categories":[],"categories_nodes":[],"categories_segments":[],"categories_sizes":[],"default_left":[0,0,0,0,0,0,0,0,0,0,0,0,0],"id":64,"left_children":[1,3,5,7,9,11,-1,-1,-1,-1,-1,-1,-1],"loss_changes":[7.3982994E1,3.956671E1,1.9940636E1,1.0680809E1,3.2041245E1,6.5251846E0,0E0,0E0,0E0,0E0,0E0,0E0,0E0],"parents":[2147483647,0,0,1,1,2,2,3,3,4,4,5,5],"right_children":[2,4,6,8,10,12,-1,-1,-1,-1,-1,-1,-1],"split_conditions":[5.56E0,1.2E0,1.49E1,1E-1,2.55E0,9.659258E-1,1.1633005E-1,-9.205442E-3,-4.1036545E-3,-1.3371789E-3,4.075408E-3,2.9143905E-2,-3.0303001E-3],"split_indices":[0,6,0,0,3,7,0,0,0,0,0,0,0],"split_type":[0,0,0,0,0,0,0,0,0,0,0,0,0],"sum_hessian":[1.0233E4,9.439E3,7.94E2,3.152E3,6.287E3,7.53E2,4.1E1,1.77E2,2.975E3,3.26E3,3.027E3,6.78E2,7.5E1],"tree_param":{"num_deleted":"0","num_feature":"9","num_nodes":"13","size_leaf_vector":"1"}},{"base_weights":[1.1823334E-2,-1.4766114E-2,2.6959246E-1,-1.0003206E-1,2.8409092E-2,2.3689957E-1,4.8809525E-2,-1.5723271E-2,-4.424181E-3,-1.2569495E-3,6.8922923E-3,8.22898E-3,1.7458102E-2],"categories":[],"categories_nodes":[],"categories_segments":[],"categories_sizes":[],"default_left":[0,0,0,0,0,0,0,0,0,0,0,0,0],"id":65,"left_children":[1,3,5,7,9,11,-1,-1,-1,-1,-1,-1,-1],"loss_changes":[7.014719E1,3.4158638E1,2.187616E1,7.6959763E0,3.6101856E1,7.3793716E0,0E0,0E0,0E0,0E0,0E0,0E0,0E0],"parents":[2147483647,0,0,1,1,2,2,3,3,4,4,5,5],"right_children":[2,4,6,8,10,12,-1,-1,-1,-1,-1,-1,-1],"split_conditions":[5.0333333E0,1.1666666E0,1.49E1,1E-1,7.0710677E-1,8.033334E0,1.10513546E-1,-9.795292E-3,-3.6840083E-3,-8.725047E-4,4.833609E-3,1.3711405E-2,3.353858E-2],"split_indices":[0,4,0,2,7,0,0,0,0,0,0,0,0],"split_type":[0,0,0,0,0,0,0,0,0,0,0,0,0],"sum_hessian":[1.0233E4,9.277E3,9.56E2,3.118E3,6.159E3,9.15E2,4.1E1,1.58E2,2.96E3,4.136E3,2.023E3,5.58E2,3.57E2],"tree_param":{"num_deleted":"0","num_feature":"9","num_nodes":"13","size_leaf_vector":"1"}},{"base_weights":[1.1627907E-2,-7.101688E-3,3.6223507E-1,-6.6015154E-2,5.5709124E-2,3.075314E-1,4.8809525E-2,-1.7837837E-2,-2.7432712E-3,5.3644916E-3,-3.955453E-3,2.4822695E-2,1.1390532E-2],"categories":[],"categories_nodes":[],"categories_segments":[],"categories_sizes":[],"default_left":[0,0,0,0,0,0,0,0,0,0,0,0,0],"id":66,"left_children":[1,3,5,7,9,11,-1,-1,-1,-1,-1,-1,-1],"loss_changes":[6.720648E1,3.595679E1,1.7130737E1,1.6234264E1,3.271323E1,7.0860825E0,0E0,0E0,0E0,0E0,0E0,0E0,0E0],"parents":[2147483647,0,0,1,1,2,2,3,3,4,4,5,5],"right_children":[2,4,6,8,10,12,-1,-1,-1,-1,-1,-1,-1],"split_conditions":[6.9333334E0,1.9333333E0,1.49E1,5E-2,3.7E0,1.0166667E0,1.0498786E-1,-1.1242442E-2,-2.1064878E-3,4.0800693E-3,-3.8431883E-3,4.3559887E-2,2.3145271E-2],"split_indices":[0,0,0,0,2,6,0,0,0,0,0,0,0],"split_type":[0,0,0,0,0,0,0,0,0,0,0,0,0],"sum_hessian":[1.0233E4,9.715E3,5.18E2,5.013E3,4.702E3,4.77E2,4.1E1,1.84E2,4.829E3,3.401E3,1.301E3,1.4E2,3.37E2],"tree_param":{"num_deleted":"0","num_feature":"9","num_nodes":"13","size_leaf_vector":"1"}},{"base_weights":[1.1823334E-2,-6.895842E-3,3.6223507E-1,-9.290802E-2,3.5912454E-2,3.075314E-1,4.8809525E-2,-8.228347E-3,-2.3214286E-3,2.4649012E-3,-1.7194571E-2,2.4822695E-2,1.1390532E-2],"categories":[],"categories_nodes":[],"categories_segments":[],"categories_sizes":[],"default_left":[0,0,0,0,0,0,0,0,0,0,0,0,0],"id":67,"left_children":[1,3,5,7,9,11,-1,-1,-1,-1,-1,-1,-1],"loss_changes":[6.7131584E1,3.5777985E1,1.7130737E1,1.0747082E1,3.3001236E1,7.0860825E0,0E0,0E0,0E0,0E0,0E0,0E0,0E0],"parents":[2147483647,0,0,1,1,2,2,3,3,4,4,5,5],"right_children":[2,4,6,8,10,12,-1,-1,-1,-1,-1,-1,-1],"split_conditions":[6.9333334E0,1.2E0,1.49E1,9E-1,8.366667E0,1.0166667E0,9.973846E-2,-5.7033836E-3,-2.120316E-3,1.9968643E-3,-1.2500286E-2,4.1381884E-2,2.198801E-2],"split_indices":[0,6,0,1,5,6,0,0,0,0,0,0,0],"split_type":[0,0,0,0,0,0,0,0,0,0,0,0,0],"sum_hessian":[1.0233E4,9.715E3,5.18E2,3.228E3,6.487E3,4.77E2,4.1E1,1.269E3,1.959E3,6.267E3,2.2E2,1.4E2,3.37E2],"tree_param":{"num_deleted":"0","num_feature":"9","num_nodes":"13","size_leaf_vector":"1"}},{"base_weights":[1.0064491E-2,-8.130918E-3,3.5067436E-1,-1.2589929E-1,2.1361472E-2,2.991632E-1,4.6428572E-2,-1.425E-2,-5.3806524E-3,1.9720455E-3,-1.0897436E-2,3.7931036E-2,1.3444445E-2],"categories":[],"categories_nodes":[],"categories_segments":[],"categories_sizes":[],"default_left":[0,0,0,0,0,0,0,0,0,0,0,0,0],"id":68,"left_children":[1,3,5,7,9,11,-1,-1,-1,-1,-1,-1,-1],"loss_changes":[6.3428436E1,3.3748985E1,1.5171886E1,5.63093E0,3.363055E1,6.4448776E0,0E0,0E0,0E0,0E0,0E0,0E0,0E0],"parents":[2147483647,0,0,1,1,2,2,3,3,4,4,5,5],"right_children":[2,4,6,8,10,12,-1,-1,-1,-1,-1,-1,-1],"split_conditions":[6.9333334E0,7.1666664E-1,1.49E1,2.1666667E-1,6.233333E0,2.6666668E-1,9.475155E-2,-8.741644E-3,-4.6243803E-3,1.5741348E-3,-8.530098E-3,4.0340673E-2,2.6270008E-2],"split_indices":[0,4,0,2,5,3,0,0,0,0,0,0,0],"split_type":[0,0,0,0,0,0,0,0,0,0,0,0,0],"sum_hessian":[1.0233E4,9.715E3,5.18E2,1.945E3,7.77E3,4.77E2,4.1E1,1.99E2,1.746E3,7.225E3,5.45E2,2.8E1,4.49E2],"tree_param":{"num_deleted":"0","num_feature":"9","num_nodes":"13","size_leaf_vector":"1"}},{"base_weights":[1.0455345E-2,-1.4334986E-2,2.507837E-1,-1.2005717E-1,1.6573817E-2,2.1943231E-1,4.6428572E-2,-1.0138004E-2,-2.6338515E-3,-1.2660812E-3,5.319615E-3,1.5521327E-2,7.0707067E-3],"categories":[],"categories_nodes":[],"categories_segments":[],"categories_sizes":[],"default_left":[0,0,0,0,0,0,0,0,0,0,0,0,0],"id":69,"left_children":[1,3,5,7,9,11,-1,-1,-1,-1,-1,-1,-1],"loss_changes":[6.0975918E1,3.0320135E1,2.0132095E1,1.16860695E1,2.7020924E1,6.458973E0,0E0,0E0,0E0,0E0,0E0,0E0,0E0],"parents":[2147483647,0,0,1,1,2,2,3,3,4,4,5,5],"right_children":[2,4,6,8,10,12,-1,-1,-1,-1,-1,-1,-1],"split_conditions":[5.0333333E0,8E-1,1.49E1,9.3333334E-1,7.0710677E-1,-2.5881904E-1,9.001398E-2,-6.2931958E-3,-2.502507E-3,-1.0091454E-3,4.128152E-3,1.994641E-2,1.49225835E-2],"split_indices":[0,6,0,1,7,8,0,0,0,0,0,0,0],"split_type":[0,0,0,0,0,0,0,0,0,0,0,0,0],"sum_hessian":[1.0233E4,9.277E3,9.56E2,2.098E3,7.179E3,9.15E2,4.1E1,9.41E2,1.157E3,4.896E3,2.283E3,4.21E2,4.94E2],"tree_param":{"num_deleted":"0","num_feature":"9","num_nodes":"13","size_leaf_vector":"1"}},{"base_weights":[1.0064491E-2,-7.307534E-3,3.3526012E-1,-8.795293E-2,3.282984E-2,2.8661087E-1,8.8095236E-1,-3.9810427E-3,-2.4615385E-2,2.2734525E-3,-1.6289594E-2,3.7931036E-2,1.2777778E-2,4.6153847E-2,1.25E-2],"categories":[],"categories_nodes":[],"categories_segments":[],"categories_sizes":[],"default_left":[0,0,0,0,0,0,0,0,0,0,0,0,0,0,0],"id":70,"left_children":[1,3,5,7,9,11,13,-1,-1,-1,-1,-1,-1,-1,-1],"loss_changes":[5.7817448E1,3.1452553E1,1.3525673E1,1.083967E1,2.942294E1,6.812855E0,8.855324E-1,0E0,0E0,0E0,0E0,0E0,0E0,0E0,0E0],"parents":[2147483647,0,0,1,1,2,2,3,3,4,4,5,5,6,6],"right_children":[2,4,6,8,10,12,14,-1,-1,-1,-1,-1,-1,-1,-1],"split_conditions":[6.9333334E0,1.2E0,1.49E1,6.0666666E0,8.366667E0,2.6666668E-1,1E0,-3.2277578E-3,-3.3174038E-2,1.8459678E-3,-1.1398307E-2,3.757752E-2,2.4004674E-2,8.987699E-2,4.812026E-2],"split_indices":[0,6,0,1,5,3,7,0,0,0,0,0,0,0,0],"split_type":[0,0,0,0,0,0,0,0,0,0,0,0,0,0,0],"sum_hessian":[1.0233E4,9.715E3,5.18E2,3.228E3,6.487E3,4.77E2,4.1E1,3.164E3,6.4E1,6.267E3,2.2E2,2.8E1,4.49E2,3.8E1,3E0],"tree_param":{"num_deleted":"0","num_feature":"9","num_nodes":"15","size_leaf_vector":"1"}},{"base_weights":[8.891929E-3,-1.2605933E-2,2.6415095E-1,-1.01041265E-1,2.0882009E-2,2.1428572E-1,6.9512194E-1,-3.115345E-3,-1.0812883E-2,1.964342E-3,-1.037182E-2,1.1621234E-2,-2.5E-2,1.388889E-2,4.0000003E-2],"categories":[],"categories_nodes":[],"categories_segments":[],"categories_sizes":[],"default_left":[0,0,0,0,0,0,0,0,0,0,0,0,0,0,0],"id":71,"left_children":[1,3,5,7,9,11,13,-1,-1,-1,-1,-1,-1,-1,-1],"loss_changes":[5.616264E1,2.7958832E1,1.693597E1,1.1558653E1,2.8784554E1,9.3670845E0,3.3669357E0,0E0,0E0,0E0,0E0,0E0,0E0,0E0,0E0],"parents":[2147483647,0,0,1,1,2,2,3,3,4,4,5,5,6,6],"right_children":[2,4,6,8,10,12,14,-1,-1,-1,-1,-1,-1,-1,-1],"split_conditions":[5.56E0,9.5E-1,1.304E1,1.5166667E0,6.233333E0,1.304E1,1.304E1,-2.3484498E-3,-7.903966E-3,1.6931057E-3,-7.4870377E-3,1.8394625E-2,-2.809124E-2,7.5199366E-2,8.05038E-2],"split_indices":[0,3,0,5,5,1,1,0,0,0,0,0,0,0,0],"split_type":[0,0,0,0,0,0,0,0,0,0,0,0,0,0,0],"sum_hessian":[1.0233E4,9.439E3,7.94E2,2.592E3,6.847E3,7.13E2,8.1E1,1.941E3,6.51E2,6.337E3,5.1E2,6.96E2,1.7E1,1.7E1,6.4E1],"tree_param":{"num_deleted":"0","num_feature":"9","num_nodes":"15","size_leaf_vector":"1"}},{"base_weights":[8.696502E-3,-2.3258546E-2,1.6666667E-1,-1.3420723E-1,2.4594907E-3,1.4015844E-1,6.9512194E-1,-6.1046514E-3,-2.3636363E-2,-2.4742268E-2,4.7681923E-4,3.2124352E-3,1.2407681E-2,1.388889E-2,4.0000003E-2],"categories":[],"categories_nodes":[],"categories_segments":[],"categories_sizes":[],"default_left":[0,0,0,0,0,0,0,0,0,0,0,0,0,0,0],"id":72,"left_children":[1,3,5,7,9,11,13,-1,-1,-1,-1,-1,-1,-1,-1],"loss_changes":[5.1664536E1,2.4291176E1,2.4025066E1,6.5119324E0,2.4330631E1,1.3436787E1,3.3669357E0,0E0,0E0,0E0,0E0,0E0,0E0,0E0,0E0],"parents":[2147483647,0,0,1,1,2,2,3,3,4,4,5,5,6,6],"right_children":[2,4,6,8,10,12,14,-1,-1,-1,-1,-1,-1,-1,-1],"split_conditions":[3.9E0,6.166667E-1,1.304E1,1.9833333E0,3.3333335E-2,3.4666667E0,1.304E1,-4.232949E-3,-1.1735274E-2,-1.1561709E-2,3.0081274E-4,4.740876E-3,1.1740923E-2,7.143941E-2,7.647862E-2],"split_indices":[0,4,0,3,0,3,1,0,0,0,0,0,0,0,0],"split_type":[0,0,0,0,0,0,0,0,0,0,0,0,0,0,0],"sum_hessian":[1.0233E4,8.512E3,1.721E3,1.601E3,6.911E3,1.64E3,8.1E1,1.547E3,5.4E1,9.6E1,6.815E3,9.64E2,6.76E2,1.7E1,6.4E1],"tree_param":{"num_deleted":"0","num_feature":"9","num_nodes":"15","size_leaf_vector":"1"}},{"base_weights":[8.501075E-3,-1.0826151E-2,2.635229E-1,-8.383234E-2,2.5701672E-2,2.078125E-1,6.9512194E-1,-1.2394367E-2,-3.157148E-3,-2.5328693E-3,3.912696E-3,1.1396469E-2,-2.5E-2,1.388889E-2,4.0000003E-2],"categories":[],"categories_nodes":[],"categories_segments":[],"categories_sizes":[],"default_left":[0,0,0,0,0,0,0,0,0,0,0,0,0,0,0],"id":73,"left_children":[1,3,5,7,9,11,13,-1,-1,-1,-1,-1,-1,-1,-1],"loss_changes":[5.0444847E1,2.537368E1,1.719167E1,1.0754131E1,2.54534E1,9.226908E0,3.3669357E0,0E0,0E0,0E0,0E0,0E0,0E0,0E0,0E0],"parents":[2147483647,0,0,1,1,2,2,3,3,4,4,5,5,6,6],"right_children":[2,4,6,8,10,12,14,-1,-1,-1,-1,-1,-1,-1,-1],"split_conditions":[5.883333E0,1.2E0,1.304E1,-5E-1,0E0,1.304E1,1.304E1,-9.157549E-3,-2.635162E-3,-2.2426606E-3,2.8431087E-3,1.9514715E-2,-2.6923705E-2,6.786742E-2,7.265468E-2],"split_indices":[0,6,0,8,7,1,1,0,0,0,0,0,0,0,0],"split_type":[0,0,0,0,0,0,0,0,0,0,0,0,0,0,0],"sum_hessian":[1.0233E4,9.513E3,7.2E2,3.172E3,6.341E3,6.39E2,8.1E1,3.54E2,2.818E3,2.585E3,3.756E3,6.22E2,1.7E1,1.7E1,6.4E1],"tree_param":{"num_deleted":"0","num_feature":"9","num_nodes":"15","size_leaf_vector":"1"}},{"base_weights":[8.696502E-3,-1.0195501E-2,2.5797504E-1,-1.12706006E-1,1.5064186E-2,2.1911764E-1,8.8095236E-1,-3.398385E-3,-1.4015152E-2,-6.7610065E-3,1.826074E-3,1.2540984E-2,-2.8169013E-3,4.6153847E-2,1.25E-2],"categories":[],"categories_nodes":[],"categories_segments":[],"categories_sizes":[],"default_left":[0,0,0,0,0,0,0,0,0,0,0,0,0,0,0],"id":74,"left_children":[1,3,5,7,9,11,13,-1,-1,-1,-1,-1,-1,-1,-1],"loss_changes":[4.8198334E1,2.463709E1,1.726041E1,1.4084702E1,2.4622255E1,5.9522324E0,8.855324E-1,0E0,0E0,0E0,0E0,0E0,0E0,0E0,0E0],"parents":[2147483647,0,0,1,1,2,2,3,3,4,4,5,5,6,6],"right_children":[2,4,6,8,10,12,14,-1,-1,-1,-1,-1,-1,-1,-1],"split_conditions":[5.883333E0,7E-1,1.49E1,1.6333333E0,5.833333E-1,9.659258E-1,1E0,-2.7348206E-3,-1.0662693E-2,-6.0887933E-3,1.5590191E-3,2.1664191E-2,-1.3244855E-2,7.390127E-2,3.4232378E-2],"split_indices":[0,3,0,5,6,7,7,0,0,0,0,0,0,0,0],"split_type":[0,0,0,0,0,0,0,0,0,0,0,0,0,0,0],"sum_hessian":[1.0233E4,9.513E3,7.2E2,1.88E3,7.633E3,6.79E2,4.1E1,1.485E3,3.95E2,9.53E2,6.68E3,6.09E2,7E1,3.8E1,3E0],"tree_param":{"num_deleted":"0","num_feature":"9","num_nodes":"15","size_leaf_vector":"1"}},{"base_weights":[8.501075E-3,-7.101688E-3,3.0057803E-1,-5.484643E-2,4.380183E-2,2.4895397E-1,8.8095236E-1,-1.6216217E-2,-2.2256728E-3,5.089538E-3,-3.8790272E-3,3.448276E-2,1.1E-2,4.6153847E-2,1.25E-2],"categories":[],"categories_nodes":[],"categories_segments":[],"categories_sizes":[],"default_left":[0,0,0,0,0,0,0,0,0,0,0,0,0,0,0],"id":75,"left_children":[1,3,5,7,9,11,13,-1,-1,-1,-1,-1,-1,-1,-1],"loss_changes":[4.66406E1,2.3615929E1,1.53305855E1,1.3947085E1,3.311153E1,5.9475822E0,8.855324E-1,0E0,0E0,0E0,0E0,0E0,0E0,0E0,0E0],"parents":[2147483647,0,0,1,1,2,2,3,3,4,4,5,5,6,6],"right_children":[2,4,6,8,10,12,14,-1,-1,-1,-1,-1,-1,-1,-1],"split_conditions":[6.9333334E0,1.9333333E0,1.49E1,5E-2,3.5166667E0,2.6666668E-1,1E0,-9.012186E-3,-1.6181201E-3,3.666073E-3,-3.25557E-3,3.2482922E-2,1.9081092E-2,7.020622E-2,3.252077E-2],"split_indices":[0,0,0,0,2,3,7,0,0,0,0,0,0,0,0],"split_type":[0,0,0,0,0,0,0,0,0,0,0,0,0,0,0],"sum_hessian":[1.0233E4,9.715E3,5.18E2,5.013E3,4.702E3,4.77E2,4.1E1,1.84E2,4.829E3,3.182E3,1.52E3,2.8E1,4.49E2,3.8E1,3E0],"tree_param":{"num_deleted":"0","num_feature":"9","num_nodes":"15","size_leaf_vector":"1"}},{"base_weights":[8.305647E-3,-1.50219295E-2,1.9910313E-1,-1.22316204E-1,6.7246836E-3,1.7225327E-1,8.8095236E-1,-5.499325E-3,-2.232143E-2,1.0980448E-3,-9.867173E-3,1.7201835E-2,6.4177364E-3,4.6153847E-2,1.25E-2],"categories":[],"categories_nodes":[],"categories_segments":[],"categories_sizes":[],"default_left":[0,0,0,0,0,0,0,0,0,0,0,0,0,0,0],"id":76,"left_children":[1,3,5,7,9,11,13,-1,-1,-1,-1,-1,-1,-1,-1],"loss_changes":[4.5552925E1,2.12804E1,2.0261192E1,6.093071E0,2.35847E1,8.054918E0,8.855324E-1,0E0,0E0,0E0,0E0,0E0,0E0,0E0,0E0],"parents":[2147483647,0,0,1,1,2,2,3,3,4,4,5,5,6,6],"right_children":[2,4,6,8,10,12,14,-1,-1,-1,-1,-1,-1,-1,-1],"split_conditions":[4.6833334E0,5.833333E-1,1.49E1,1.9833333E0,6.0666666E0,3.3666666E0,1E0,-3.98107E-3,-1.021604E-2,9.0836885E-4,-7.393071E-3,2.3765469E-2,9.005618E-3,6.6695884E-2,3.089471E-2],"split_indices":[0,4,0,3,5,2,7,0,0,0,0,0,0,0,0],"split_type":[0,0,0,0,0,0,0,0,0,0,0,0,0,0,0],"sum_hessian":[1.0233E4,9.119E3,1.114E3,1.536E3,7.583E3,1.073E3,4.1E1,1.481E3,5.5E1,7.057E3,5.26E2,2.17E2,8.56E2,3.8E1,3E0],"tree_param":{"num_deleted":"0","num_feature":"9","num_nodes":"15","size_leaf_vector":"1"}},{"base_weights":[9.087356E-3,-1.3925439E-2,1.9730942E-1,-1.1581002E-1,6.7246836E-3,1.7039107E-1,8.8095236E-1,-5.1619434E-3,-2.232143E-2,-2.2772279E-2,6.480492E-4,1.674312E-2,6.4177364E-3,4.6153847E-2,1.25E-2],"categories":[],"categories_nodes":[],"categories_segments":[],"categories_sizes":[],"default_left":[0,0,0,0,0,0,0,0,0,0,0,0,0,0,0],"id":77,"left_children":[1,3,5,7,9,11,13,-1,-1,-1,-1,-1,-1,-1,-1],"loss_changes":[4.4331482E1,1.9188612E1,2.0368729E1,6.3420773E0,2.1864752E1,7.382408E0,8.855324E-1,0E0,0E0,0E0,0E0,0E0,0E0,0E0,0E0],"parents":[2147483647,0,0,1,1,2,2,3,3,4,4,5,5,6,6],"right_children":[2,4,6,8,10,12,14,-1,-1,-1,-1,-1,-1,-1,-1],"split_conditions":[4.6833334E0,5.833333E-1,1.49E1,1.9833333E0,3.3333335E-2,3.3666666E0,1E0,-3.782016E-3,-9.70524E-3,-1.0198518E-2,5.2411854E-4,2.257719E-2,8.555341E-3,6.336107E-2,2.9349996E-2],"split_indices":[0,4,0,3,0,2,7,0,0,0,0,0,0,0,0],"split_type":[0,0,0,0,0,0,0,0,0,0,0,0,0,0,0],"sum_hessian":[1.0233E4,9.119E3,1.114E3,1.536E3,7.583E3,1.073E3,4.1E1,1.481E3,5.5E1,1E2,7.483E3,2.17E2,8.56E2,3.8E1,3E0],"tree_param":{"num_deleted":"0","num_feature":"9","num_nodes":"15","size_leaf_vector":"1"}},{"base_weights":[7.1330857E-3,-5.591704E-3,3.20802E-1,-3.703178E-2,7.38616E-2,2.5977653E-1,8.333333E-1,-1.5361446E-2,-1.5254976E-3,6.321586E-3,-7.7884616E-3,1.6027875E-2,6.9444446E-4,-2.5E-2,4.3902438E-2],"categories":[],"categories_nodes":[],"categories_segments":[],"categories_sizes":[],"default_left":[0,0,0,0,0,0,0,0,0,0,0,0,0,0,0],"id":78,"left_children":[1,3,5,7,9,11,13,-1,-1,-1,-1,-1,-1,-1,-1],"loss_changes":[4.0849487E1,2.457324E1,1.2263226E1,1.2410469E1,3.3687725E1,5.3459606E0,2.9430904E0,0E0,0E0,0E0,0E0,0E0,0E0,0E0,0E0],"parents":[2147483647,0,0,1,1,2,2,3,3,4,4,5,5,6,6],"right_children":[2,4,6,8,10,12,14,-1,-1,-1,-1,-1,-1,-1,-1],"split_conditions":[8.033334E0,3.1E0,1.49E1,5E-2,6.0666666E0,8.660254E-1,8E-1,-7.915064E-3,-1.1264653E-3,4.4311644E-3,-6.8285763E-3,2.298658E-2,1.2954712E-3,-1.8373013E-3,6.0193013E-2],"split_indices":[0,3,0,0,5,7,4,0,0,0,0,0,0,0,0],"split_type":[0,0,0,0,0,0,0,0,0,0,0,0,0,0,0],"sum_hessian":[1.0233E4,9.835E3,3.98E2,7.047E3,2.788E3,3.57E2,4.1E1,1.65E2,6.882E3,2.269E3,5.19E2,2.86E2,7.1E1,1E0,4E1],"tree_param":{"num_deleted":"0","num_feature":"9","num_nodes":"15","size_leaf_vector":"1"}},{"base_weights":[7.1330857E-3,-2.0204393E-2,1.4227642E-1,-1.17411606E-1,5.702067E-4,1.1700183E-1,6.4634144E-1,-4.8565124E-3,-1.5602837E-2,-2.2772279E-2,3.615329E-4,2.453027E-3,1.0599415E-2,-1.25E-2,3.4177214E-2],"categories":[],"categories_nodes":[],"categories_segments":[],"categories_sizes":[],"default_left":[0,0,0,0,0,0,0,0,0,0,0,0,0,0,0],"id":79,"left_children":[1,3,5,7,9,11,13,-1,-1,-1,-1,-1,-1,-1,-1],"loss_changes":[3.7812164E1,1.7191568E1,2.1862724E1,5.887247E0,2.1309746E1,1.05798E1,2.9052963E0,0E0,0E0,0E0,0E0,0E0,0E0,0E0,0E0],"parents":[2147483647,0,0,1,1,2,2,3,3,4,4,5,5,6,6],"right_children":[2,4,6,8,10,12,14,-1,-1,-1,-1,-1,-1,-1,-1],"split_conditions":[3.9E0,5.833333E-1,1.304E1,2.66E0,3.3333335E-2,3.45E0,8E-1,-3.1239376E-3,-1.7436929E-2,-9.29284E-3,2.894521E-4,3.3538581E-3,9.519911E-3,-1.7454148E-3,5.2561857E-2],"split_indices":[0,4,0,1,0,3,4,0,0,0,0,0,0,0,0],"split_type":[0,0,0,0,0,0,0,0,0,0,0,0,0,0,0],"sum_hessian":[1.0233E4,8.512E3,1.721E3,1.498E3,7.014E3,1.64E3,8.1E1,1.358E3,1.4E2,1E2,6.914E3,9.57E2,6.83E2,3E0,7.8E1],"tree_param":{"num_deleted":"0","num_feature":"9","num_nodes":"15","size_leaf_vector":"1"}},{"base_weights":[6.5468047E-3,-4.134732E-3,3.38558E-1,-9.937565E-2,1.8761726E-2,2.6258993E-1,8.333333E-1,-2.885246E-3,-1.2939699E-2,-2.2580644E-2,1.2147286E-3,4.1666668E-2,1.1111111E-2,-2.5E-2,4.3902438E-2],"categories":[],"categories_nodes":[],"categories_segments":[],"categories_sizes":[],"default_left":[0,0,0,0,0,0,0,0,0,0,0,0,0,0,0],"id":80,"left_children":[1,3,5,7,9,11,13,-1,-1,-1,-1,-1,-1,-1,-1],"loss_changes":[3.629515E1,2.1625484E1,1.1771469E1,1.2753063E1,2.081804E1,6.219824E0,2.9430904E0,0E0,0E0,0E0,0E0,0E0,0E0,0E0,0E0],"parents":[2147483647,0,0,1,1,2,2,3,3,4,4,5,5,6,6],"right_children":[2,4,6,8,10,12,14,-1,-1,-1,-1,-1,-1,-1,-1],"split_conditions":[8.85E0,7E-1,1.49E1,1.64E0,3.3333335E-2,2.1666667E-1,8E-1,-2.0990937E-3,-9.985912E-3,-1.1017524E-2,9.849832E-4,4.822216E-2,1.6645228E-2,-1.6581536E-3,5.4555275E-2],"split_indices":[0,3,0,5,0,5,4,0,0,0,0,0,0,0,0],"split_type":[0,0,0,0,0,0,0,0,0,0,0,0,0,0,0],"sum_hessian":[1.0233E4,9.915E3,3.18E2,1.921E3,7.994E3,2.77E2,4.1E1,1.524E3,3.97E2,9.2E1,7.902E3,1.7E1,2.6E2,1E0,4E1],"tree_param":{"num_deleted":"0","num_feature":"9","num_nodes":"15","size_leaf_vector":"1"}},{"base_weights":[6.155951E-3,-2.0204393E-2,1.3646922E-1,-3.5E-1,-1.4688321E-2,1.1090798E-1,6.4634144E-1,-2.0930232E-2,2.0833334E-2,-5.513699E-3,2.74765E-4,1.0538462E-2,2.2681453E-3,-1.25E-2,3.4177214E-2],"categories":[],"categories_nodes":[],"categories_segments":[],"categories_sizes":[],"default_left":[0,0,0,0,0,0,0,0,0,0,0,0,0,0,0],"id":81,"left_children":[1,3,5,7,9,11,13,-1,-1,-1,-1,-1,-1,-1,-1],"loss_changes":[3.5157597E1,1.5481507E1,2.2371082E1,7.537985E0,1.615627E1,1.07314625E1,2.9052963E0,0E0,0E0,0E0,0E0,0E0,0E0,0E0,0E0],"parents":[2147483647,0,0,1,1,2,2,3,3,4,4,5,5,6,6],"right_children":[2,4,6,8,10,12,14,-1,-1,-1,-1,-1,-1,-1,-1],"split_conditions":[3.9E0,3.3333335E-2,1.304E1,1E0,5.833333E-1,3.8666666E0,8E-1,-8.378829E-3,6.1252224E-3,-3.814292E-3,2.981238E-4,8.978701E-3,3.401363E-3,-1.5752316E-3,4.720602E-2],"split_indices":[0,0,0,8,4,2,4,0,0,0,0,0,0,0,0],"split_type":[0,0,0,0,0,0,0,0,0,0,0,0,0,0,0],"sum_hessian":[1.0233E4,8.512E3,1.721E3,1.39E2,8.373E3,1.64E3,8.1E1,1.28E2,1.1E1,1.459E3,6.914E3,6.49E2,9.91E2,3E0,7.8E1],"tree_param":{"num_deleted":"0","num_feature":"9","num_nodes":"15","size_leaf_vector":"1"}},{"base_weights":[6.155951E-3,-1.4993336E-2,1.6084485E-1,-4.300222E-2,5.0314464E-2,1.369748E-1,8.333333E-1,-8.682927E-3,-8.810155E-4,8.664495E-3,-5.560308E-3,1.417683E-2,4.05562E-3,-2.5E-2,4.3902438E-2],"categories":[],"categories_nodes":[],"categories_segments":[],"categories_sizes":[],"default_left":[0,0,0,0,0,0,0,0,0,0,0,0,0,0,0],"id":82,"left_children":[1,3,5,7,9,11,13,-1,-1,-1,-1,-1,-1,-1,-1],"loss_changes":[3.3483555E1,1.6472267E1,1.9646278E1,2.0896305E1,5.3709152E1,9.719877E0,2.9430904E0,0E0,0E0,0E0,0E0,0E0,0E0,0E0,0E0],"parents":[2147483647,0,0,1,1,2,2,3,3,4,4,5,5,6,6],"right_children":[2,4,6,8,10,12,14,-1,-1,-1,-1,-1,-1,-1,-1],"split_conditions":[4.46E0,7.0710677E-1,1.49E1,6.166667E-1,2.5881904E-1,3.8166666E0,8E-1,-5.1702918E-3,-6.828189E-4,6.6060363E-3,-5.0990805E-3,1.5777398E-2,5.6589367E-3,-1.4964581E-3,4.9467232E-2],"split_indices":[0,7,0,2,8,2,4,0,0,0,0,0,0,0,0],"split_type":[0,0,0,0,0,0,0,0,0,0,0,0,0,0,0],"sum_hessian":[1.0233E4,9.003E3,1.23E3,6.301E3,2.702E3,1.189E3,4.1E1,1.024E3,5.277E3,1.534E3,1.168E3,3.27E2,8.62E2,1E0,4E1],"tree_param":{"num_deleted":"0","num_feature":"9","num_nodes":"15","size_leaf_vector":"1"}},{"base_weights":[5.9605236E-3,9.849305E-4,6.219512E-1,-3.5006393E-2,5.8748078E-2,3.902439E-1,8.333333E-1,-1.069473E-3,-1.1380145E-2,8.010862E-3,-1.4427041E-4,3.6111113E-2,6.25E-3,-2.5E-2,4.3902438E-2],"categories":[],"categories_nodes":[],"categories_segments":[],"categories_sizes":[],"default_left":[0,0,0,0,0,0,0,0,0,0,0,0,0,0,0],"id":83,"left_children":[1,3,5,7,9,11,13,-1,-1,-1,-1,-1,-1,-1,-1],"loss_changes":[3.136577E1,2.110986E1,3.6910553E0,1.6401955E1,2.4378159E1,3.519987E0,2.9430904E0,0E0,0E0,0E0,0E0,0E0,0E0,0E0,0E0],"parents":[2147483647,0,0,1,1,2,2,3,3,4,4,5,5,6,6],"right_children":[2,4,6,8,10,12,14,-1,-1,-1,-1,-1,-1,-1,-1],"split_conditions":[1.304E1,2.55E0,1.49E1,5.15E0,2.9166667E0,2.7666667E0,8E-1,-8.173704E-4,-8.666331E-3,6.0149194E-3,-1.2062788E-4,5.430579E-2,2.9676342E-2,-1.4216424E-3,4.6993878E-2],"split_indices":[0,0,0,4,2,3,4,0,0,0,0,0,0,0,0],"split_type":[0,0,0,0,0,0,0,0,0,0,0,0,0,0,0],"sum_hessian":[1.0233E4,1.0152E4,8.1E1,6.255E3,3.897E3,4E1,4.1E1,5.843E3,4.12E2,1.472E3,2.425E3,1.7E1,2.3E1,1E0,4E1],"tree_param":{"num_deleted":"0","num_feature":"9","num_nodes":"15","size_leaf_vector":"1"}},{"base_weights":[6.5468047E-3,1.575889E-3,6.219512E-1,-1.762011E-2,1.0115783E-1,3.902439E-1,8.333333E-1,-2.557872E-4,-7.91367E-3,8.402923E-3,3.6549708E-4,3.6111113E-2,6.25E-3,-2.5E-2,4.3902438E-2],"categories":[],"categories_nodes":[],"categories_segments":[],"categories_sizes":[],"default_left":[0,0,0,0,0,0,0,0,0,0,0,0,0,0,0],"id":84,"left_children":[1,3,5,7,9,11,13,-1,-1,-1,-1,-1,-1,-1,-1],"loss_changes":[3.1306091E1,1.9410002E1,3.6910553E0,1.4971685E1,1.0301762E1,3.519987E0,2.9430904E0,0E0,0E0,0E0,0E0,0E0,0E0,0E0,0E0],"parents":[2147483647,0,0,1,1,2,2,3,3,4,4,5,5,6,6],"right_children":[2,4,6,8,10,12,14,-1,-1,-1,-1,-1,-1,-1,-1],"split_conditions":[1.304E1,3.9E0,1.49E1,5.4E0,-2.5881904E-1,2.7666667E0,8E-1,-1.8633455E-4,-5.5015683E-3,5.981517E-3,1.0306E-3,5.159049E-2,2.819252E-2,-1.3505459E-3,4.4644166E-2],